pove -0.61268 -0.17704 -0.054426 0.5547 0.21187 0.20379 0.062629 0.60078 0.088179 0.2472 -0.056411 0.14185 -0.32894 0.054949 0.24739 0.33381 0.0017312 0.44996 -0.31646 0.24971 -0.030652 0.0065217 -0.068407 0.1147 -0.14547 -0.070607 0.30274 -0.039144 0.42625 0.14791 0.12619 -0.69189 -0.13917 0.016653 -0.45175 -0.2671 -0.70295 0.22373 -0.10824 -0.07971 -0.77238 -0.23574 -0.18627 -0.30603 0.11884 -0.24466 -0.073029 0.63484 -0.49188 0.099382 -0.097527 -0.12269 -0.099656 -0.21946 0.12017 0.1955 -0.13738 0.080116 0.43932 -0.20784 -0.08069 -0.34227 -0.36021 -0.24382 0.0036769 -0.42666 0.10971 0.38488 0.72315 0.20458 0.061049 0.092152 -0.20052 -0.18002 0.035244 -0.085876 0.22455 0.11425 -0.22582 -0.24186 -0.061322 0.22877 0.15215 -0.27097 0.47912 0.14863 -0.14656 -0.25411 0.079462 0.56713 0.39126 0.18828 -0.13335 0.18474 0.18902 0.088077 -0.47072 -0.057608 0.12608 -0.27753 
trackpad -0.48224 -0.29181 -0.041719 -0.068894 0.32766 -0.080441 0.41143 -0.30026 0.079608 0.15954 0.33779 -0.43733 -0.29137 -0.32518 0.61824 0.14991 0.080872 0.39956 0.50749 -0.074546 -0.19062 0.019764 0.11542 0.17682 -0.024757 -0.44994 0.30066 -0.12158 -0.15326 -0.20819 0.14961 -0.74857 -0.62888 0.17146 -0.064299 -0.10742 -0.15045 0.2156 -0.26812 -0.28978 -0.2159 0.02308 0.085875 0.049947 0.14616 -0.52782 0.19233 -0.069492 0.28941 -0.19594 -0.27724 -0.1563 0.57777 0.31879 0.07894 0.21158 -0.09557 -0.294 0.13173 -0.33716 0.19497 -0.057613 -0.33705 0.14461 0.31354 -0.33894 -0.070308 -0.22409 -0.15235 0.14574 0.095924 0.029185 -0.084214 -0.32756 -0.04255 0.07487 -0.32337 -0.22776 -0.48431 0.46824 -0.3072 0.064258 0.11085 -0.034775 -0.066471 0.42313 -0.01154 -0.4106 -0.36805 0.18695 -0.17799 -0.26872 -0.27979 0.17931 -0.035829 -0.04836 -0.13011 0.061064 0.25578 0.47286 
MC309LL 0.065186 0.00144 0.15215 -0.0078298 -0.21646 -0.02104 0.16153 0.15464 -0.020812 0.18189 0.09503 -0.013413 0.016412 -0.14447 0.18917 0.020825 0.11882 -0.06087 0.019666 0.057662 -0.024771 0.053155 0.15476 -0.10743 -0.00095849 -0.29001 0.11766 0.030883 0.044763 -0.105 -0.087204 -0.14351 -0.052952 0.01609 -0.31823 -0.058332 -0.10222 -0.048241 -0.11932 -0.11808 -0.037887 0.040552 -0.010448 -0.053787 0.048362 -0.0058869 0.024446 0.07442 -0.12564 0.055002 0.030409 0.044181 0.093498 0.011269 0.046301 0.1745 0.12785 -0.020831 0.093099 -0.0053162 -0.097108 0.13084 0.03816 -0.03623 0.011007 -0.019952 -0.06689 -0.003305 -0.02228 -0.17604 0.18618 0.0047945 -0.082624 -0.052937 -0.20797 -0.14555 -0.024895 0.067387 -0.14303 -0.07704 -0.0026177 -0.078455 0.074893 -0.033106 0.16359 0.033607 0.027024 -0.14826 -0.0611 0.047812 0.26658 -0.0052117 -0.13409 -0.085888 0.1258 0.25125 0.010497 -0.048034 0.083886 -0.0020059 
320GB -0.17222 0.0015974 -0.012049 0.0064331 0.017756 -0.0037963 0.037098 0.14617 0.064634 0.16186 0.052324 -0.063702 0.067129 0.038504 0.055148 -0.036941 -0.11185 0.33487 0.052777 -0.0075864 -0.057758 -0.10912 0.2699 -0.20946 -0.08707 -0.1989 0.1335 -0.11325 -0.097099 -0.14535 0.15232 -0.15436 -0.056864 0.0085392 0.084416 0.20501 -0.054338 0.1039 0.02265 -0.02503 -0.029288 0.14736 0.13472 -0.03641 0.096344 -0.48293 0.17463 0.11122 -0.068789 -0.11799 0.022658 -0.11693 0.18204 0.14423 -0.01284 0.12818 -0.26837 0.029005 0.3757 -0.078931 0.095564 0.11229 -0.47613 0.26239 -0.19686 0.095408 0.079924 -0.38437 0.26797 -0.36035 -0.016741 -0.10277 -0.32183 0.047643 0.2328 -0.25672 -0.31779 -0.14053 -0.19092 0.1744 -0.12092 -0.13058 0.11749 0.037048 0.29436 0.12653 0.2268 -0.033414 -0.23296 -0.093178 0.10343 -0.13212 0.065022 0.15736 -0.18532 -0.057657 0.042298 0.1201 0.1282 -0.21578 
512MB -0.36462 -0.068589 0.042057 0.070237 0.044448 0.040161 0.075367 -0.06621 -0.064749 -0.21522 0.02698 -0.044622 -0.072024 -0.083767 0.17379 0.066736 0.00019486 0.058267 0.13178 -0.13192 -0.12083 0.069524 -0.24925 -0.13444 -0.023053 0.024689 0.10951 0.22328 0.16832 -0.21881 0.21362 -0.053817 -0.06502 0.014634 0.10251 -0.093129 -0.061606 0.22038 -0.059662 0.0068757 -0.16721 -0.10757 0.27946 -0.044768 -0.044197 -0.26541 0.16835 0.073647 -0.15916 0.094789 -0.045364 -0.13681 -0.087781 0.066643 0.082551 -7.774e-05 -0.099512 -0.044769 0.14751 -0.1173 0.016485 -0.0085743 -0.2217 -0.093736 -0.19189 -0.24144 -0.028912 0.061482 -0.18687 -0.012907 -0.17707 -0.1123 -0.14215 0.11811 0.056172 -0.056752 -0.22325 0.15073 -0.14725 0.072075 -0.027984 0.054401 -0.050503 -0.079126 -0.12352 -0.084785 0.20342 -0.24559 0.26739 -0.16862 0.076158 -0.038031 0.086841 -0.17283 -0.040582 -0.0084909 0.055623 0.14619 0.01111 0.16971 
ninteenth -0.44802 0.11799 -0.059674 0.21599 0.57397 0.057374 0.25446 0.12889 -0.04149 0.67834 0.13982 -0.2639 -0.54699 -0.43517 0.2159 0.1694 -0.2439 0.18785 0.053274 0.15474 -0.13049 0.07988 -0.0039628 0.00947 -0.28077 -0.31353 -0.2042 0.43168 -0.10967 -0.13546 0.06463 -0.33406 -0.56742 0.16989 -0.50592 -0.043021 0.32732 0.25619 -0.48207 4.3871e-05 0.098367 0.3084 0.24546 -0.1824 0.16939 -0.33969 0.040093 0.58824 -0.21887 -0.15656 0.11881 -0.062377 -0.06843 0.12658 -0.064519 0.29568 -0.19188 0.13753 -0.027924 0.10646 -0.035363 0.2841 -0.41044 0.12587 0.3718 -0.25511 -0.088453 -0.48191 0.42246 0.1894 0.044586 -0.15732 0.4339 0.10383 -0.51227 0.32228 -0.12997 -0.47066 -0.6923 0.31768 0.084671 -0.20279 -0.020788 -0.65147 0.59481 0.028787 0.36178 -0.4417 -0.24784 0.58499 0.10871 0.19504 0.34946 0.24365 -0.47321 0.29689 0.13203 0.38001 -0.18843 0.16616 
within2 -0.44277 -0.12467 -0.071908 0.014009 -0.014956 -0.22751 0.049602 0.46176 0.14842 -0.063005 0.22061 -0.14452 -0.32956 0.17656 0.3654 0.13938 -0.056516 0.23033 0.39469 0.17832 0.28022 -0.053573 -0.13259 0.30966 0.34251 0.2231 0.14413 0.069611 0.021926 -0.1215 0.2386 -0.19882 -0.31136 -0.037659 -0.13834 -0.065785 0.062213 -0.21926 -0.030396 -0.24574 -0.58588 -0.22685 -0.037095 0.24957 0.21421 0.12174 0.064295 -0.76825 -0.41145 -0.42858 -0.021678 -0.046362 0.029787 -0.42885 -0.045694 0.12003 -0.25078 -0.27149 -0.16029 0.32193 -0.049558 -0.13489 -0.5727 -0.087156 0.14139 -0.40309 -0.16149 -0.17435 0.49567 0.026754 0.096192 -0.13171 -0.15015 -0.30249 0.18888 -0.055343 -0.21957 -0.092919 -0.50103 0.52425 0.10309 0.2384 -0.21009 -0.20543 0.13482 0.29764 0.44195 -0.16527 -0.23547 -0.09658 0.30486 0.33518 0.41859 -0.051106 -0.19809 0.069072 0.095692 0.47558 -0.14796 0.25677 
courtesey -0.46107 -0.34155 0.061276 0.38173 0.18307 0.40519 0.48477 0.52095 -0.11358 -0.095177 -0.12076 -0.11995 -0.16665 -0.18075 0.24725 0.14439 0.082408 0.066823 0.13502 -0.055597 0.1438 -0.11384 -0.20405 0.1559 -0.15758 -0.044276 0.012813 0.10922 0.14968 -0.25348 0.33884 -0.22004 -0.23661 0.0089404 -0.68015 -0.024001 -0.42026 0.29915 0.024401 -0.0072257 -0.59559 0.12789 0.12665 -0.11233 -0.073086 -0.019259 0.37313 0.32333 -0.033494 -0.26992 -0.12224 0.083958 0.45646 0.013834 0.18114 -0.047977 0.099314 -0.031438 -0.14359 -0.073375 0.13346 0.11076 0.028681 -0.090452 0.029931 -0.70051 0.029616 0.026728 0.11157 -0.09827 0.29918 -0.36255 0.11934 0.18809 -0.10499 0.22147 -0.1515 0.21581 -0.0060632 -0.12646 -0.016648 0.022878 -0.2069 -0.01474 0.1795 -0.039338 0.12821 -0.15467 0.094814 0.19745 0.09071 0.22025 -0.2714 0.0068987 0.37007 0.13208 -0.50368 0.26026 -0.20597 0.28248 
Netbook -0.15402 -0.19172 0.13499 0.041827 0.11455 0.36359 0.0012682 0.17076 -0.06444 0.10006 -0.31652 0.096598 0.28817 -0.24082 0.29325 0.31897 0.0023937 -0.39591 0.73015 0.11879 -0.098474 -0.028779 0.019564 0.28287 -0.17195 -0.40732 -0.14428 -0.22984 -0.14558 0.28021 0.6778 -0.08851 -0.060139 -0.34783 -0.32709 -0.39412 -0.24666 0.18215 -0.15649 0.39385 0.26896 0.019258 0.21454 -0.097957 0.017769 -0.78833 0.35546 0.45663 -0.019069 -0.16674 -0.33837 0.16713 0.14578 0.41135 0.21521 0.12311 0.14767 -0.36323 -0.6578 0.31549 0.16246 -0.15121 -0.16166 -0.073633 -0.16243 -0.16572 -0.064613 0.19105 0.57343 -0.29392 0.26148 -0.098383 -0.17925 0.0799 -0.11429 0.37744 -0.0023083 -0.63228 -0.21709 -0.075625 0.34015 0.090068 -0.20744 -0.66551 0.77959 -0.246 0.40612 -0.63792 -0.20475 0.037276 -0.1928 -0.15403 -0.095753 0.54149 0.078808 -0.045301 -0.2975 0.0344 -0.17319 -0.42422 
glary -0.27471 0.065101 0.31192 -0.4711 0.38143 0.001386 0.11027 0.0087573 -0.52449 0.83114 -0.3755 0.10771 -0.49122 0.33275 -0.034445 -0.26602 -0.1446 -0.34106 0.53149 0.37889 -0.19342 -0.02635 -0.40213 0.094581 -0.1063 0.080267 0.34781 0.28367 0.43921 0.086487 -0.087513 -0.32441 -0.2738 0.23551 -0.41159 -0.41735 -0.52609 0.29151 -0.34333 0.092421 0.00065735 -0.030077 0.18424 -0.60447 0.27063 -0.62692 0.36584 0.10391 -0.22381 -0.26241 0.25956 -0.0036021 0.068244 -0.30416 -0.074053 0.26749 -0.098747 0.48106 0.33831 -0.16993 0.30473 0.2259 -0.27552 1.0165 0.47006 -0.8126 -0.39201 -0.71634 0.23822 -0.48754 -0.23484 -0.57736 0.13069 0.01349 -0.19742 0.069537 -0.42316 0.36028 -0.081702 0.03965 -0.035366 -0.21071 0.13964 -0.25332 0.11846 0.14891 0.31804 -0.0079904 -0.63449 0.63786 0.56213 0.15925 -0.05007 0.2175 -0.26479 -0.10052 0.09236 0.11587 -0.020078 -0.28663 
cirspy 0.081489 -0.096003 -0.017311 0.38149 0.099058 0.18959 0.014643 0.1023 -0.024574 0.31069 -0.010035 -0.10502 -0.43703 -0.23688 0.18819 0.25606 0.36466 0.4819 0.20124 -0.23509 -0.36591 -0.019371 -0.075662 0.13828 0.08666 -0.085109 0.14814 -0.37312 0.23936 -0.22754 0.030857 -0.12351 -0.38126 -0.071326 -0.33084 -0.18632 0.001583 0.16899 -0.4123 -0.28773 -0.18562 0.039978 -0.20211 0.0069509 0.040574 -0.37403 0.092869 0.037933 -0.027279 -0.22303 -0.26523 0.15527 -0.047571 -0.059875 0.2098 0.18452 -0.14473 -0.4418 0.018187 -0.38173 -0.22472 -0.02871 0.097693 0.01492 0.24113 -0.27816 -0.20729 -0.29649 0.054075 -0.058851 -0.072752 -0.021809 0.1377 0.046303 -0.19194 -0.21564 0.16935 -0.22023 -0.34398 0.098848 -0.013635 -0.049595 -0.020303 -0.3222 0.029063 0.068588 -0.010067 -0.10098 -0.0097756 0.23001 0.57355 0.025851 -0.28076 0.17735 -0.1804 0.21486 0.055792 0.43599 -0.099619 0.070878 
REPAIRED -0.43353 -0.43098 -0.27799 0.074445 -0.43202 0.044509 0.33542 0.67944 -0.088656 0.48771 0.1068 -0.44981 0.13461 -0.45352 0.12934 -0.008038 -0.17671 0.28453 0.057968 -0.057296 -0.15318 -0.17924 -0.13631 0.13646 0.0087567 0.31607 0.071848 0.057263 0.020463 -0.74324 -0.012215 -0.29543 -0.053375 -0.27932 -0.3808 -0.04455 0.16133 0.1879 -0.53237 -0.26898 -0.082974 -0.21688 0.50077 -0.065663 -0.11992 -0.24989 0.14294 0.38537 -0.45723 -0.12402 0.047685 0.092439 -0.066249 0.27262 0.24599 0.32666 0.17151 0.30847 0.43265 0.2109 -0.28383 0.4387 0.1275 -0.1398 0.2194 -0.31158 0.038333 0.0061492 -0.11851 -0.22179 0.22931 -0.62346 -0.11518 -0.31497 0.27779 0.10499 0.32746 -0.40412 -0.35417 -0.29178 0.12054 -0.31145 -0.016454 -0.21236 0.12955 0.072661 0.70187 -0.43433 -0.06057 0.43052 0.377 0.13562 0.44648 0.32805 0.37815 0.93177 -0.15953 0.43155 0.18444 -0.14868 
Lightweight 0.47389 0.17962 0.0066489 0.024031 0.17772 -0.18574 -0.0047188 0.55798 0.21048 0.67103 -0.045432 -0.16341 -0.047759 -0.35141 0.38946 0.32291 0.38615 -0.17231 0.38408 -0.3086 0.14021 0.31239 -0.10868 -0.055422 -0.28149 -0.097193 0.31399 0.077379 0.32269 -0.10827 0.30552 -0.55736 -0.11912 -0.39914 -0.32567 0.079621 -0.1503 0.39593 0.17955 -0.29683 -0.32696 0.48855 -0.13802 -0.68349 0.3034 -0.62793 0.0077573 -0.11033 -0.30626 0.29409 -0.21327 0.25335 -0.53395 0.30494 -0.33933 0.087489 -0.44002 -0.44455 0.44031 -0.17968 0.23255 -0.14588 -0.17295 0.17819 -0.24826 -0.092484 -0.31351 -0.34171 -0.14371 -0.091605 0.11309 0.082783 -0.11522 -0.18797 -0.093901 0.056882 0.47935 -0.66785 0.034412 0.010937 -0.090741 -0.36966 0.3415 -0.12068 0.36394 -0.23974 0.62198 -0.73698 0.15747 0.23189 -0.10287 0.2159 0.052688 0.33873 -0.36894 0.57032 -0.24794 0.25051 0.00096236 -0.11414 
html -0.112 -0.047829 0.23734 0.32299 -0.081458 -0.0035988 0.41777 -0.026949 0.12414 0.015614 -0.096637 0.081801 -0.22094 -0.25311 -0.025348 0.39579 -0.32415 0.087748 0.13797 0.045929 0.13115 -0.46762 0.039064 -0.18086 -0.081081 0.073053 0.22663 -0.056494 0.29407 -0.44145 0.17599 -0.032438 -0.13138 -0.26691 0.1712 0.13356 -0.24789 0.26337 0.24528 -0.16283 -0.027506 0.44103 -0.0037458 -0.21188 -0.29269 -0.28017 0.38474 0.27726 -0.45617 -0.40413 0.11271 -0.51696 -0.086069 0.36269 0.21324 0.44304 -0.13322 -0.20905 0.31096 -0.1296 0.25612 0.19983 0.17256 -3.7479e-05 -0.40716 0.10817 0.0079209 -0.22349 -0.18942 -0.33951 -0.087566 -0.21283 0.0089589 -0.22077 0.3121 0.010015 0.16373 -0.096777 -0.087869 -0.22621 -0.32854 0.040874 0.08566 -0.13214 0.036403 0.25621 0.23127 -0.51828 0.10324 -0.16548 -0.26441 0.042854 0.10884 0.30914 -0.10958 0.096003 0.023538 0.074134 0.10227 -0.072963 
SolidWorks -0.41701 -0.41801 -0.11808 0.44099 0.11294 -0.020585 0.31792 0.53763 0.18813 0.37541 0.019011 -0.014854 0.17556 -0.23558 -0.13838 0.22533 -0.26301 -0.097399 0.10973 -0.0014503 -0.0082198 0.44326 0.17422 0.094326 -0.38826 -0.26485 0.05784 -0.081584 0.14618 0.21414 0.40829 0.068887 -0.088753 -0.35675 -0.49971 -0.05404 -0.21224 0.20112 -0.39213 -0.043435 -0.39437 0.10494 -0.2425 -0.025001 -0.032419 -0.35745 0.19052 0.043493 -0.020517 -0.18689 -0.13647 -0.0043235 -0.1077 0.054274 0.35221 0.2429 0.17103 -0.2531 -0.10885 0.13006 -0.11289 -0.038603 -0.24252 -0.11971 0.31837 0.0096482 0.095413 0.22399 0.2681 -0.14725 -0.008019 -0.21848 -0.0039928 -0.027457 -0.10271 -0.25534 -0.21989 -0.41158 -0.082332 0.098593 0.011166 0.173 -0.19728 -0.13711 0.21419 0.25123 0.12819 -0.4833 -0.17192 -0.18703 0.25395 0.22714 -0.32085 0.023844 -0.19614 0.27338 0.036201 0.30433 -0.060756 -0.1623 
HPs -0.040495 -0.21236 -0.012686 0.009852 0.21261 0.27204 -0.022131 0.19499 -0.18048 0.023969 0.14621 0.036879 -0.0772 0.16081 -0.0095889 -0.043668 0.0058624 0.43409 0.021298 -0.047007 -0.023922 -0.016102 0.27297 0.23586 -0.0080241 -0.15216 0.19741 -0.19706 -0.021563 -0.034033 -0.088053 -0.15931 0.028571 0.037722 -0.43907 -0.24076 -0.24799 0.15285 0.006355 0.065699 -0.091995 0.15945 0.11684 -0.49432 0.24033 -0.093577 -0.073599 0.23009 -0.19888 0.11101 -0.28533 0.064049 0.3008 -0.10103 0.1675 0.17647 0.061846 0.034609 0.31116 0.01976 -0.098828 0.053533 -0.33142 0.10419 -0.066966 -0.19391 0.0087212 -0.35996 -0.11842 -0.11068 -0.17721 -0.28927 -0.021322 0.038953 -0.052866 -0.19592 -0.017345 0.15803 -0.23904 -0.040569 0.073586 -0.2242 -0.18847 0.096807 -0.18318 0.11026 -0.042695 -0.063558 -0.11943 0.1176 0.38853 -0.15316 -0.063179 0.25147 0.42628 -0.0058481 -0.069199 0.28589 -0.0050506 -0.19835 
quicklook -0.32892 -0.016526 0.1003 0.16897 0.022189 0.15287 0.53367 0.36426 -0.14147 0.30586 -0.067491 -0.051862 -0.44511 -0.32326 -0.10971 0.1031 -0.10148 -0.27041 0.29062 0.12564 0.14038 -0.028789 -0.23811 0.048501 0.069266 -0.11709 0.36658 -0.050497 0.18552 -0.3199 0.35824 -0.11556 -0.20421 -0.017615 -0.1276 -0.10699 0.04813 0.30008 0.2003 -0.013195 -0.45381 -0.030778 -0.17535 -0.36989 0.1211 0.018155 0.58302 -0.37121 -0.082247 -0.13133 -0.071129 0.45342 0.3355 -0.47579 0.34405 0.36889 0.095289 -0.38869 0.152 0.20063 -0.38415 -0.10525 -0.12265 -0.1457 0.0023933 -0.36016 0.0086613 0.25953 -0.065051 0.057989 0.33781 -0.45483 0.16431 0.34835 -0.023854 0.42492 -0.057341 -0.012168 -0.15897 0.57296 -0.22023 0.37316 -0.15471 -0.29927 -0.062724 0.13279 0.33084 0.047463 -0.36011 0.11937 -0.2343 -0.079367 -0.062995 -0.24277 -0.4641 0.039259 -0.3384 0.57671 -0.080462 0.14746 
bluray 0.16368 -0.044674 -0.10887 0.095393 -0.022642 0.35672 0.062746 0.30871 -0.18179 0.43817 0.10482 -0.26337 -0.40442 -0.032798 0.39103 0.025774 -0.035691 -0.0067038 0.53847 0.10701 0.12703 -0.03588 -0.12196 0.37342 -0.25946 -0.21069 0.26197 0.31405 0.4283 -0.04553 -0.11117 -0.0061607 -0.061921 -0.30151 -0.25278 -0.090009 0.20381 0.32118 0.21793 -0.049093 0.0016344 -0.11872 -0.19619 -0.4486 0.14772 -0.77223 0.044818 -0.12504 -0.049179 -0.2262 -0.11136 -0.077167 -0.049091 0.061409 0.038266 0.27986 -0.060646 -0.036516 0.52335 0.029077 0.017198 -0.14251 0.15989 0.10802 0.24641 0.20192 -0.23041 0.023921 0.33059 0.1058 0.096878 -0.37195 0.17084 -0.32487 -0.19465 -0.2333 0.18078 -0.34981 0.048045 0.046715 0.18893 -0.038667 0.27282 -0.41893 0.26895 -0.21105 0.13844 -0.63135 -0.10059 0.5759 0.32184 -0.12909 -0.078896 0.12318 0.097361 -0.073491 -0.16233 0.37872 0.37304 0.049822 
Orsay -0.30884 -0.13382 0.084185 0.50436 0.36585 0.16247 0.41005 0.34684 0.19934 0.34372 0.16392 0.19455 -0.096966 -0.038366 0.25762 0.31725 -0.11725 0.31739 0.51088 0.22504 -0.26958 -0.080069 0.18383 -0.17127 0.042383 0.089193 -0.062258 0.23467 -0.25968 0.30364 0.31225 -0.081857 -0.068877 -0.12388 0.2186 0.082687 -0.0064578 0.0099389 -0.3031 0.20064 0.29824 -0.070272 -0.12738 -0.13719 -0.1843 -0.42663 0.076448 -0.02949 -0.0070656 0.030079 0.058264 -0.23109 -0.41108 0.22463 0.34981 -0.054278 0.32294 -0.018423 0.088156 0.13261 0.17254 -0.14926 0.3949 0.35139 0.18415 -0.39915 -0.027083 0.26511 0.29247 -0.58258 -0.11397 -0.030598 -0.091903 -0.38169 0.28112 -0.00061881 -0.17908 -0.22705 0.026846 -0.14715 0.10161 0.056087 0.19385 -0.26674 0.31242 -0.68013 0.45181 -0.39778 -0.036287 0.030218 -0.2381 -0.18692 0.01368 -0.022571 -0.35167 0.59227 -0.40508 0.40863 -0.01424 -0.19359 
Larimer -0.21971 0.14744 0.19118 0.51954 0.25691 0.28786 -0.041153 0.2781 -0.33969 0.37263 -0.032418 0.14583 0.061123 -0.22817 0.5791 0.24142 0.36949 -0.19815 0.34578 -0.11458 -0.13733 -0.17283 0.079278 0.10277 -0.05358 -0.55755 0.091418 0.092002 0.15402 -0.068761 0.70728 -0.15803 -0.10351 -0.05089 -0.50644 0.076656 0.46983 0.02854 0.1676 -0.029522 0.041555 0.30671 0.32601 -0.084174 -0.18595 -0.36517 0.096066 0.23473 0.18102 -0.1429 -0.087647 0.13094 0.18629 0.32399 0.23185 0.20033 0.10745 0.076404 0.29815 0.02665 -0.29218 -0.32929 0.3236 0.2179 0.088674 -0.64436 0.21415 -0.18505 -0.19699 0.11124 0.092445 -0.17471 -0.14619 -0.17871 0.0027699 -0.14781 -0.38731 -0.048605 0.085397 0.23473 0.18595 0.29176 -0.093837 -0.12042 0.50263 -0.84805 0.5314 -0.37948 0.30671 0.01052 -0.094191 -0.20839 -0.84136 0.20038 -0.031494 0.25136 -0.22234 0.25221 -0.21644 -0.12174 
15in -0.32583 0.22518 -0.0762 0.072498 0.071238 -0.21458 0.10374 0.32666 -0.14016 0.072003 -0.2013 -0.109 0.1679 -0.18398 0.18343 0.23487 0.095842 0.47517 0.048913 0.090231 -0.008509 0.10365 0.38124 -0.010699 -0.19214 0.22637 -0.13448 -0.071864 0.17322 -0.33116 0.5058 -0.31239 0.084043 -0.24451 -0.2246 -0.19794 -0.14568 0.44034 -0.15253 -0.013304 -0.17211 0.049315 0.11357 -0.20109 0.14777 -0.39122 0.26759 0.10087 -0.11307 -0.075896 -0.25421 -0.30089 -0.17884 -0.033268 0.10698 0.36221 -0.24117 0.0067323 0.26182 -0.075264 -0.17751 -0.034907 -0.25924 0.024205 0.062176 -0.15571 0.073849 -0.12347 0.14869 -0.077691 -0.20706 -0.14932 -0.22704 -0.023883 -0.18294 0.030615 0.14556 -0.26095 -0.24104 0.33991 -0.024259 0.20326 0.28827 0.048161 -0.0060162 -0.10356 -0.056474 -0.41578 0.11042 0.085889 -0.0013276 0.22206 0.16701 0.22233 -0.0042573 0.0078551 -0.1903 0.45672 0.17664 0.042808 
Nortons -0.72841 -0.2966 -0.020073 0.59897 0.076787 -0.63312 0.34602 0.79492 0.011183 0.28356 0.06561 0.078522 -0.73263 -0.282 0.21131 0.43357 -0.2759 0.097313 0.11452 -0.26656 0.27114 0.068815 0.3306 -0.40668 0.048058 -0.24327 -0.31655 -0.16876 0.41458 0.12766 0.58298 0.34104 -0.36682 0.20152 -0.089136 -0.71734 -0.67769 0.18874 -0.27572 0.01698 0.25794 0.38019 0.52429 0.41173 -0.061205 -0.38901 0.31861 0.29462 0.27777 -0.41028 -0.16479 -0.19399 -0.30379 0.19321 0.24428 0.23467 0.16462 0.037678 0.45624 -0.42051 0.071334 -0.0523 0.34706 -0.30268 -0.014297 -0.59602 -0.6041 0.19773 0.34993 -1.0131 -0.03245 0.027013 -0.038194 0.27822 0.035191 -0.3381 -0.47456 0.18794 -0.3416 0.14709 0.28517 -0.057152 -0.16875 -0.1072 0.33022 -0.015365 0.45757 -0.12001 0.0064926 0.20491 0.34856 -0.073917 -0.87248 0.20177 0.46593 0.35115 -0.35994 0.45435 -0.15841 -0.15093 
reurn -0.22831 -0.53933 0.46193 -0.14327 0.0034506 -0.060579 0.29536 0.43565 -0.44513 -0.12298 0.322 -0.51881 -0.51349 -0.17799 -0.26491 -0.032124 -0.14381 0.69152 -0.083807 -0.16169 -0.78849 0.099184 -0.23819 0.019676 -0.13383 0.19244 0.14498 -0.25962 0.49814 -0.41287 0.35871 -0.066679 -0.039936 0.18617 -0.88152 0.12696 -0.19589 0.29292 -0.36025 -0.30471 -0.44567 0.12579 0.0042596 -0.28648 0.18851 -0.36922 0.15404 0.19052 -0.35645 0.046687 -0.62244 0.086566 -0.23898 -0.56068 0.21249 0.40916 -0.26266 -0.20983 0.30321 0.035571 -0.47775 -0.17175 -0.42623 -0.2388 0.34636 -0.59582 -0.15944 -0.062401 0.20662 -0.49414 0.097242 0.31394 0.29096 0.028817 -0.045206 0.62207 -0.024879 -0.2272 -0.61265 0.36076 -0.31457 0.65434 -0.082529 -0.62529 0.31559 0.045792 0.34764 -0.74562 0.13421 0.15567 0.79479 0.098699 -0.14559 -0.4269 0.19707 0.13539 -0.59547 0.31725 -0.12935 -0.069509 
Micron -0.47907 -0.30127 -0.024483 0.48033 0.38973 0.041758 0.23926 0.33603 0.17762 -0.18262 0.34348 0.097291 -0.23683 -0.14143 0.34682 0.3755 0.16533 0.26211 0.061595 -0.33556 -0.21439 -0.17523 -0.14333 -0.15133 0.18871 -0.10806 0.24734 -0.13106 0.36035 0.28665 0.43725 0.025503 -0.012926 0.32503 -0.19297 -0.24606 0.032055 0.55968 -0.31519 -0.24961 0.13933 -0.25475 -0.12609 -0.036979 -0.19258 -0.50851 0.31843 0.44477 -0.23372 -0.079401 -0.059311 0.14047 -0.29123 0.60317 0.32913 0.25741 -0.022047 0.00080891 -0.0090927 -0.1117 0.11307 -0.16021 0.16744 -0.37681 0.08812 0.26789 0.097841 -0.12617 -0.19258 -0.31866 -0.48741 -0.18121 0.0078594 -0.035505 0.16926 0.36104 -0.082324 -0.13836 -0.23125 0.24072 0.27165 0.032556 -0.34402 0.025786 0.41282 -0.27062 0.51281 -0.667 -0.063205 -0.058181 0.0051221 -0.44076 -0.10873 -0.041649 0.38914 0.33198 -0.055665 0.83703 0.66614 -0.16339 
phonecalls -0.41656 -0.36176 0.0016941 -0.05122 0.37441 0.31259 0.31726 0.16387 0.092741 0.38025 -0.0027713 -0.2238 -0.41457 -0.1723 0.50002 0.18883 -0.11596 -0.11504 0.36424 -0.12459 0.12419 -0.086173 0.068553 0.095727 -0.28245 -0.12647 -0.024446 -0.19283 0.34226 -0.52801 0.0010317 -0.089324 -0.29744 0.13901 -0.12391 0.13248 -0.2586 0.62073 -0.023993 -0.16109 -0.28273 0.24325 0.14703 0.3508 -0.064209 -0.28292 0.64549 -0.092156 -0.020894 -0.36282 0.045002 -0.066652 0.33551 -0.079764 -0.18703 0.007769 -0.12344 0.48751 0.23828 -0.22476 0.27607 -0.017224 0.098952 -0.17604 0.27507 -0.35576 0.14555 -0.17188 0.046648 -0.43881 -0.31748 -0.2247 -0.061571 -0.23053 -0.065938 0.099051 -0.21803 -0.10285 -0.49455 -0.0040786 -0.22323 -0.049374 -0.26544 0.031728 0.27586 0.10001 0.51293 0.062881 -0.41931 0.56585 0.013689 -0.45113 -0.38696 -0.046467 0.21982 -0.057278 -0.01498 0.36559 -0.55997 0.016717 
persoal -0.47479 -0.0055247 -0.067447 0.17543 -0.061593 -0.051376 0.0047874 0.31005 0.0092811 0.07231 -0.065363 -0.29492 -0.13235 -0.22018 0.25826 -0.32657 0.33944 0.078983 0.13965 -0.10844 -0.0025696 0.12534 0.066783 0.29573 -0.2884 -0.20735 0.46616 -0.22117 0.067488 -0.14533 0.33197 -0.20289 -0.12899 0.12271 -0.23537 -0.019909 0.054317 0.14214 0.052749 -0.36294 -0.20475 0.13823 0.062161 -0.43729 0.075453 -0.16078 0.21669 0.23356 -0.0046045 -0.34204 -0.36742 0.097842 0.13923 -0.033532 -0.21594 -0.0075662 -0.083009 -0.1118 -0.22049 -0.062472 -0.12048 -0.068531 0.3374 0.010882 0.27236 -0.27923 -0.094957 -0.095812 0.12678 0.096334 0.063443 -0.39668 -0.21085 0.021031 0.0001245 -0.020682 -0.20976 -0.2035 -0.20578 -0.11528 0.039994 0.30623 0.026942 0.11882 0.22829 -0.25708 0.21951 -0.44165 0.30228 0.25331 -0.11784 0.097514 -0.02142 0.27383 0.13059 0.026737 -0.11338 0.12128 -0.11409 -0.094673 
depanable -0.28559 -0.31143 -0.17164 0.13633 -0.43422 0.12201 0.2184 0.28947 -0.22801 0.090937 -0.12822 -0.17371 -0.17226 -0.33918 0.10349 -0.013898 0.20879 0.04805 0.36335 0.094327 -0.15703 0.069303 0.30055 -0.0090587 0.060089 -0.44094 0.075782 0.0019566 0.30499 -0.13198 -0.028273 -0.3047 -0.11565 0.15381 -0.2285 -0.11099 -0.47384 0.18946 -0.41453 -0.17514 -0.33557 -0.073542 -0.13568 -0.092524 0.65525 -0.13077 0.15063 0.13024 0.02303 -0.24831 -0.28958 -0.0058361 0.067539 0.0070336 0.16434 -0.096607 -0.20064 -0.17198 -0.024641 -0.39344 -0.50981 -0.1481 0.24025 0.22832 0.21634 -0.52457 -0.15728 -0.0020087 0.068951 -0.084747 0.048856 0.1479 0.21206 -0.023068 0.016862 -0.034693 -0.047721 -0.073013 -0.1878 0.069613 -0.32258 0.28725 -0.055521 -0.17003 0.51592 0.15311 0.27275 -0.59897 -0.24087 0.36033 0.11514 -0.25453 0.026306 -0.014095 0.025577 0.091249 0.082049 0.18353 -0.07136 -0.15925 
PhotoBooth -0.0091163 -0.12656 -0.056906 0.28023 0.13988 -0.024295 0.3134 0.56753 -0.040511 0.00025936 0.26295 0.17299 -0.099878 -0.35341 0.52857 0.058067 0.19002 -0.12622 0.19788 -0.3743 -0.23265 0.15391 0.014913 0.27118 0.14647 0.097016 0.25393 -0.18117 -0.14391 -0.18732 -0.055896 -0.077238 0.15806 0.17611 -0.17758 0.046624 -0.012453 0.2166 -0.4074 0.14146 -0.062685 0.55215 0.049528 -0.28345 0.12658 -0.6437 0.23611 0.0034408 -0.37772 -0.29748 0.069971 -0.13301 0.089644 -0.029194 0.45795 0.023417 0.18118 -0.074562 0.10074 0.10595 0.10601 0.08965 -0.14626 -0.15803 0.14693 -0.30501 0.040721 -0.30907 0.065513 -0.2611 -0.047988 -0.15502 -0.084878 -0.15554 -0.23128 0.13002 0.15377 -0.014025 -0.20931 -0.015589 -0.14181 -0.086914 -0.016216 -0.29027 -0.1147 -0.25018 -0.042522 -0.2136 -0.26708 -0.17063 0.14009 -0.12918 -0.35449 0.19317 0.10396 0.54328 -0.0064173 0.26643 0.20551 0.038312 
USER 0.066056 -0.12826 -0.18769 0.13125 -0.59295 -0.036541 0.24969 0.85757 0.031423 0.24809 -0.18766 -0.38952 -0.22201 -0.72559 0.1377 -0.19325 0.050432 -0.19562 -0.058679 0.26101 -0.36587 0.037942 0.32556 -0.38145 0.0034488 0.38242 0.21421 0.1432 0.28179 -1.0672 0.21807 -0.16561 -0.075116 0.0023848 -0.46312 -0.029867 -0.13307 0.21468 -0.30063 0.020586 -0.42448 -0.13145 0.55992 0.027461 -0.57044 -0.26337 0.30253 0.47006 -0.64986 -0.062818 -0.72199 -0.013476 0.30949 0.40523 0.39573 0.97396 0.26569 0.33011 0.072414 0.44264 -0.45917 0.64474 0.49937 -0.29361 0.1937 -0.34124 -0.12145 -0.12225 -0.29593 -0.1667 0.58872 -0.56975 -0.099238 -0.39376 0.2115 0.15409 0.14425 -0.54512 -0.67938 -0.0023222 -0.49 -0.31647 0.14994 -0.22078 0.22796 0.21117 1.1224 -0.58027 -0.20603 0.44791 0.29887 -0.6146 0.35398 0.51587 0.87419 0.95992 -0.37543 0.59769 -0.087553 -0.13396 
Nortell -0.56779 -0.37164 0.089542 0.49489 -0.21612 -0.22724 0.12757 0.58136 0.030272 -0.15167 0.069643 -0.32086 -0.34074 -0.30528 0.0094408 0.5049 -0.10557 -0.053432 0.78416 0.22947 0.050153 -0.10672 -0.5665 -0.0028895 0.18847 -0.099206 0.13734 0.015845 0.60426 -0.3411 0.037898 0.27457 -0.54255 -0.35303 -0.31159 -0.41874 -0.26997 0.67145 0.36459 0.17805 0.2016 -0.047808 -0.12335 0.1329 -0.25036 -0.81889 0.0075652 -0.14711 0.21732 -0.37445 0.11274 0.12508 -0.098511 -0.054623 0.034001 0.26807 0.13369 0.11981 0.13488 0.15506 -0.017339 -0.29913 0.10381 -0.62885 -0.44138 0.13467 -0.31675 0.53281 0.21567 0.11257 0.025237 -0.3426 -0.087424 -0.070276 0.12808 0.098048 -0.17179 -0.19267 -0.20692 0.075985 0.091775 0.34397 -0.060176 -0.71303 0.26085 0.35561 0.31601 -0.64274 0.097496 -0.63162 -0.036385 0.18991 0.043978 0.16172 0.45948 -0.078521 -0.3847 0.87438 0.30178 -0.47206 
maneuverable -0.049563 -0.34642 -0.030687 0.27473 -0.16627 0.060942 0.46869 0.25894 0.12313 -0.017548 0.22752 0.032487 -0.2284 -0.25497 0.23802 0.2055 0.4466 -0.14038 0.23234 0.055451 -0.1713 -0.039088 -0.073863 0.20818 -0.12064 -0.58133 0.2838 0.041848 0.1491 0.11888 0.11092 -0.21929 -0.12154 0.017641 -0.67822 -0.3613 -0.59732 0.022616 -0.18092 -0.13132 0.22157 -0.31321 0.033632 0.1861 0.36141 -0.54759 0.20393 -0.026409 -0.60904 -0.041585 -0.075878 -0.16387 0.50557 -0.29204 0.24744 -0.25237 -0.31671 0.077814 0.16932 0.052887 0.058408 0.038391 -0.13929 0.23163 0.38079 -0.55284 -0.21208 -0.11683 0.44826 0.18571 -0.42712 -0.096005 -0.097979 -0.34646 -0.20108 0.25039 -0.30108 0.14873 -0.11661 0.25255 -0.35358 0.14297 0.10254 -0.50354 0.050754 0.17334 0.20819 -0.28527 -0.64678 0.16963 0.227 0.30637 0.32822 0.26436 0.52109 0.11762 0.14367 0.16635 -0.25004 -0.015887 
LAPTOPS -0.15757 -0.16681 -0.36244 -0.042404 0.17104 -0.41445 0.22637 0.29094 -0.10542 0.10177 -0.073133 -0.20539 -0.029719 -0.30612 0.36526 0.020211 0.091295 -0.063091 0.062358 -0.04658 -0.17989 0.15168 0.038961 0.071775 0.14516 0.34365 0.038284 -0.039794 0.078966 -0.38926 0.02728 0.091144 -0.16011 -0.29375 -0.44939 0.15409 -0.048798 0.15237 -0.11683 -0.21699 -0.15008 -0.10081 0.14977 0.17342 -0.16293 -0.080896 0.2015 -0.016438 -0.034284 -0.076934 -0.21902 0.023449 -0.17069 0.10171 0.1988 -0.038138 0.015795 0.12969 0.26764 0.16491 -0.085143 0.16991 -0.065907 -0.1563 0.17101 0.068018 0.025895 0.12156 -0.13227 -0.066167 -0.027655 -0.11993 -0.075248 0.1399 0.12365 0.080023 0.19638 -0.23368 -0.087172 -0.014346 0.07203 -0.0093245 -0.062357 -0.18126 0.053924 -0.15466 0.42121 -0.24481 -0.20263 0.2532 0.18621 0.090395 0.21267 0.18712 0.3283 0.392 -0.25904 0.45598 0.10415 0.026229 
trivialities -0.39971 -0.2216 0.47578 0.063254 0.11743 0.10743 0.15861 -0.028112 -0.12674 0.15545 0.11922 -0.5263 -0.88435 0.15699 0.17425 0.11482 0.50799 -0.36623 0.33426 0.28472 -0.077484 0.28207 -0.38268 0.048988 -0.11038 -0.45187 0.055287 -0.24667 0.047017 0.11728 0.079442 -0.50576 -0.32467 -0.036258 -0.4047 0.040984 -0.57778 0.13506 -0.12528 0.036521 -0.32636 0.30203 -0.18375 -0.20062 0.050127 -0.57783 0.16106 0.013112 -0.41564 -0.073604 0.043866 0.094096 0.39754 0.54659 0.3642 0.12011 -0.12313 0.13783 0.22357 -0.093599 0.33803 -0.36701 0.14854 -0.21339 0.68699 -0.022311 0.23725 -0.26404 0.2137 0.10735 -0.39316 -0.079472 0.15701 -0.050842 0.2379 -0.24671 -0.09776 0.1542 -0.24205 -0.23243 0.15399 0.041842 0.24167 -0.17643 0.21841 0.14785 0.55277 -0.070532 -0.73951 0.27844 0.39786 -0.12866 -0.18608 -0.058389 0.16826 0.051275 -0.22131 -0.25782 0.34743 -0.22787 
iphoto -0.25755 -0.29755 -0.44453 0.43896 0.28155 0.32182 0.40032 0.048954 -0.16648 0.00628 0.4657 -0.18464 -0.41384 -0.74747 0.66205 0.060911 0.10507 0.29097 0.48069 -0.098863 -0.11638 -0.4231 0.14339 0.064671 0.13737 0.26356 0.13906 -0.095525 -0.49356 -0.023363 -0.006409 0.34568 0.066441 0.07364 -0.2158 0.11132 0.16371 -0.018058 -0.24028 0.18615 -0.057486 0.11661 0.0042278 -0.53125 0.11665 -0.70033 0.38161 0.30153 0.01236 -0.33714 -0.072561 0.1437 0.39227 0.23521 0.32123 0.31454 0.25634 -0.078825 0.58038 -0.051871 -0.41607 -0.088979 -0.087431 -0.16526 -0.085227 -0.0699 0.022196 0.024512 0.099634 -0.52662 0.049018 -0.59749 -0.31057 -0.1547 0.15205 -0.096782 -0.053136 -0.13753 -0.35381 0.098184 0.090062 0.28705 0.41951 -0.051831 0.39456 0.30259 -0.46803 -0.4777 -0.024582 -0.13408 -0.14841 -0.056866 -0.24944 0.61791 0.037663 0.029166 -0.063244 0.2314 0.3344 -0.081956 
firefox -0.30814 -0.52304 0.22362 0.34603 0.56584 0.18514 0.74776 0.32234 -0.0316 0.53585 0.38171 -0.57838 -0.55526 -0.39014 -0.22791 -0.067266 -0.16084 0.13761 0.24617 0.23591 -0.035342 -0.0255 0.59736 0.36573 -0.016402 -0.40216 0.16057 -0.22952 0.35302 -0.45948 -0.04122 -0.32914 -0.79625 -0.064208 -0.45418 -0.064658 -0.50328 0.52723 -0.71704 -0.19747 -0.20862 0.0010437 0.13638 0.045979 -0.053729 -0.28339 0.39651 -0.17789 -0.047774 -0.27579 -0.35133 -0.28431 0.73584 0.30121 -0.056235 0.36304 -0.031708 0.021541 0.45251 -0.59989 0.10499 -0.079628 -0.37842 0.078649 -0.27142 -0.38574 -0.27654 -0.29915 0.013222 -0.10499 -0.2147 -0.0023522 0.29653 0.19037 0.24372 0.1562 0.13242 -0.3568 -0.18825 -0.43308 -0.40124 0.26276 0.29256 0.17038 0.16936 0.49311 0.055778 -0.16482 -0.27917 -0.078746 0.37741 -0.10147 -0.087626 -0.061818 0.46199 0.42681 -0.070248 0.24851 -0.1631 -0.41224 
SquareTrade -0.094068 -0.21622 -0.032686 0.43005 0.17706 -0.19315 0.020809 0.10591 0.55489 0.28883 0.15296 -0.047132 -0.09281 -0.013658 0.22149 0.31313 -0.10062 0.069793 0.5046 -0.33494 -0.33079 0.1707 -0.22933 -0.13477 0.29744 -0.080003 -0.057358 0.14022 0.12097 0.63304 0.24805 0.14196 -0.046511 0.042702 -0.28634 -0.02948 -0.080815 0.3468 -0.10248 0.24265 5.6367e-05 -0.050344 0.19477 0.08335 -0.039707 -0.65386 0.28733 -0.26806 -0.20857 0.18942 0.31979 0.079092 0.18704 -0.15126 0.53086 0.030109 -0.034791 0.13582 0.10863 -0.074446 0.022253 -0.36128 -0.23453 -0.034531 -0.15624 -0.024199 0.088486 0.072147 -0.01134 -0.21799 -0.086141 0.028114 -0.30588 -0.13498 0.14185 -0.086797 -0.44013 -0.16776 -0.32236 0.29953 0.0047733 -0.0099262 0.080252 -0.39697 0.27441 -0.25326 0.39341 -0.38498 -0.091897 -0.15696 -0.02039 0.054108 -0.19778 -0.016449 -0.16938 0.18446 -0.13779 0.56294 0.0086689 -0.46232 
MC373LL/ -0.047421 -0.033946 -0.010955 0.12115 -0.092219 -0.086265 -0.011703 0.038898 -0.0061471 0.016424 0.023686 0.12738 -0.071648 -0.055108 0.046669 0.040336 -0.029324 0.10416 -0.15639 0.09612 -0.14983 0.054009 -0.029714 0.060299 0.048601 -0.012942 -0.022956 -0.054776 0.064345 -0.087596 0.10745 0.038313 -0.084267 -0.062925 -0.069126 -0.18862 0.015788 -0.02457 0.046028 0.041551 -0.018311 0.10141 0.046747 -0.012819 0.038477 -0.082918 0.12874 0.081491 -0.058457 -0.030166 0.029978 0.089082 0.034229 0.10958 0.0007561 -0.00074693 -0.041578 -0.10193 0.016334 0.0051686 -0.12991 -0.11258 0.1045 -0.08011 0.02039 -0.061956 -0.0087418 0.1084 0.00020778 0.039225 0.060079 -0.11765 -0.058764 -0.024507 -0.0036881 0.054182 -0.11931 0.065207 0.036089 0.039919 -0.026475 0.024104 -0.070924 0.13641 0.072639 -0.049675 0.17844 -0.044603 0.12511 0.015887 0.0040855 -0.013944 0.011942 0.075709 0.10182 0.040285 -0.22508 0.045284 -0.065414 0.18233 
aftermarket -0.52129 -0.14089 0.089457 0.51746 -0.1969 0.44958 0.16975 0.31682 0.51215 0.10675 -0.038548 0.13565 -0.18887 -0.085642 0.36916 0.069687 -0.075643 0.36056 0.18067 0.036214 -0.39638 0.019045 0.079058 -0.20024 0.079411 -0.44154 0.12919 -0.087951 -0.17359 0.28367 0.0024364 -0.34754 -0.54901 0.44561 -0.080569 -0.38181 -0.23111 -0.14331 -0.47003 0.07142 -0.28957 -0.0034563 0.14953 -0.065735 0.75706 -0.41346 0.15511 0.056069 -0.22818 -0.16242 -0.07855 0.30599 -0.1322 -0.2765 0.64123 0.32212 -0.28983 0.075618 0.12195 -0.20783 -0.19205 0.42774 -0.11813 -0.11709 -0.13773 0.094431 -0.11978 -0.041423 0.13027 -0.55283 0.073393 0.35771 -0.38301 0.023712 0.30166 -7.8457e-05 -0.42456 0.30107 0.16104 0.16135 -0.08539 0.19544 -0.074498 -1.0022 0.15462 0.41088 0.78745 0.18332 0.16233 0.19002 0.014405 -0.16901 -0.21189 -0.26615 -0.0030519 0.45778 -0.106 0.074591 -0.0055185 -0.18661 
newegg -0.47578 -0.26603 0.14192 0.51881 0.25747 -0.23115 0.6433 -0.00089782 -0.16486 -0.24037 0.057393 -0.37066 0.0060173 -0.71636 -0.15556 0.21886 -0.081919 0.29898 0.20243 0.28163 0.040898 0.14497 -0.22091 0.43375 0.33722 0.031928 0.046077 -0.071587 0.37797 -0.35738 1.1226 -0.12296 0.28934 -0.1886 -0.14081 -0.17772 0.19544 0.13729 0.13024 -0.066627 -0.098367 -0.01071 0.033886 -0.18874 -0.28212 -0.57787 0.30982 0.12807 -0.32991 0.055849 -0.18599 0.34015 -0.039818 -0.39194 0.59255 0.38289 0.069747 -0.18504 0.26142 0.012693 -0.49041 0.047501 0.10078 -0.39106 0.57031 -0.42573 0.13206 0.057328 0.141 0.095531 0.048613 -0.47596 -0.090019 0.12607 -0.014957 0.35805 0.066681 -0.50367 -0.17251 0.34964 0.30721 1.0762 -0.11131 0.0034987 0.11625 -0.1197 0.45533 -0.34326 0.2584 -0.21264 0.14387 0.12812 -0.34216 0.1584 -0.24042 0.44063 -0.47422 0.69529 -0.0040019 -0.054816 
iWeb -0.066727 -0.15918 -0.21028 -0.15501 0.20419 -0.078535 0.25188 0.077986 -0.40607 0.10777 0.073875 -0.29144 -0.40163 -0.0235 -0.02671 -0.059835 -0.07245 -0.011876 0.15962 0.15717 -0.2483 -0.22085 0.2512 0.33849 0.080169 0.11576 0.16303 -0.049541 -0.040016 -0.28894 0.32346 -0.33642 -0.023812 0.18803 -0.12754 0.23526 0.14938 0.42793 -0.15541 -0.18151 0.20739 0.093304 0.074026 -0.23777 -0.035331 -0.16815 0.30737 -0.078405 -0.081528 -0.24527 0.0778 0.042075 0.40734 0.14826 -0.17823 0.019562 0.095679 0.3461 0.27396 -0.27634 -0.26483 -0.17302 -0.054611 0.31079 -0.055293 -0.24718 0.10082 0.14326 0.17923 0.087111 0.0017128 -0.44731 -0.25452 0.12885 0.12798 0.38832 -0.31011 -0.44505 -0.35115 0.042268 -0.41353 0.19075 -0.036556 -0.059709 0.23665 0.035264 0.29388 -0.33254 0.079408 0.31948 -0.0052915 -0.61494 -0.11468 0.41109 0.17114 -0.18608 0.20031 0.17946 -0.13895 -0.096251 
Laptops -0.40381 -0.59305 0.27548 0.26305 0.59932 -0.34503 1.012 0.57529 0.4974 0.1496 0.7307 -0.81284 -0.094045 -0.057601 0.12179 -0.39345 0.07808 -0.33978 0.65843 -0.55449 0.072366 0.1597 0.72933 0.05197 0.017482 -0.34728 -0.021738 -0.8097 0.22572 -0.14926 0.38232 -0.2951 0.11496 -0.13232 -0.13604 -0.18867 0.19271 0.40805 -0.051548 -0.1066 -0.01833 -0.25753 -0.12411 -0.72178 0.45344 -0.74806 -0.043877 0.046433 0.047438 -0.026786 -0.31944 -0.37616 0.47533 0.10732 0.29034 -0.010415 0.13586 -0.21299 0.011596 -0.29602 0.073087 -0.056938 -0.46836 -0.48162 0.83683 -0.39353 -0.12066 -0.16773 0.073344 -0.39651 -0.60301 0.3511 0.21686 0.29973 0.21961 -0.49792 -0.38501 0.095455 -0.65024 0.065415 0.13111 -0.090554 -0.39969 -0.6499 -0.04984 0.10269 0.41369 -0.54048 -0.2241 -0.32107 -0.046099 0.24358 -0.26257 0.27434 0.54669 0.2089 -0.12577 0.43977 -0.53283 0.27186 
balconey -0.59399 -0.18922 -0.25111 0.57192 0.22221 0.1584 0.14267 0.35426 -0.13588 -0.22461 0.3341 -0.080553 -0.49414 -0.61014 -0.20983 0.39076 -0.010487 -0.073014 0.10182 -0.45087 -0.24029 0.75204 0.16685 -0.37547 0.19301 0.16197 0.29039 -0.15004 0.57284 -0.19144 -0.0273 -0.073604 -0.4543 0.10021 -0.74282 -0.5265 -0.56229 0.31518 -0.7931 0.017699 -0.0093893 0.12878 -0.16052 -0.097489 0.2574 -0.2465 0.053755 0.59338 0.16681 -0.3891 -0.24736 0.32181 -0.29542 0.068547 0.20294 -0.20464 0.29514 -0.16481 0.34823 0.068343 -0.026265 -0.58837 -0.46081 0.033851 0.091284 -0.03281 -0.3806 -0.52486 -0.050532 -0.29809 -0.34984 -0.16163 -0.15363 -0.11309 -0.18289 -0.1173 -0.019779 -0.17386 -0.52611 0.10973 -0.21865 0.049369 -0.38965 -0.1414 0.25529 -0.35497 -0.044521 -0.087595 -0.10159 -0.13052 0.66219 -0.064324 -0.40249 0.21867 -0.16024 0.31932 -0.27418 0.57062 -0.39847 -0.31708 
thime 0.3761 0.039068 -0.061547 0.13618 0.30494 -0.083828 0.088153 0.35164 0.41133 0.30317 -0.11776 -0.26417 -0.43021 -0.42687 0.0069018 0.24746 0.02634 0.48312 -0.21841 0.2452 0.51352 -0.20008 -0.20476 -0.0082625 -0.23757 0.041694 0.32391 -0.06837 -0.092612 -0.47264 0.11805 -0.26144 0.090948 0.19437 0.13732 -0.37502 -0.025704 0.57223 0.085069 -0.069339 -0.06986 -0.092157 -0.14352 -0.30483 0.11761 -0.13468 0.6158 0.55828 -0.1908 -0.20668 0.054809 0.08342 -0.36839 0.14699 0.25531 0.33578 0.056333 -0.11666 0.070021 0.11129 -0.0962 -0.58123 -0.10488 -0.19785 0.008018 -0.25819 0.17933 -0.51883 0.17933 0.32811 0.27664 -0.38983 -0.11605 -0.20102 0.13125 -0.035565 0.091258 0.15545 0.25779 0.046683 0.39651 0.1969 0.039421 -0.050604 0.45212 0.2219 0.43911 -0.42099 -0.20398 0.098855 -0.086551 -0.18848 0.47644 0.17636 -0.15681 0.93105 -0.12043 0.50721 0.17164 0.1859 
iMovie -0.048876 -0.36245 -0.1616 0.3878 -0.056789 0.063612 0.33628 0.26549 -0.25294 0.45915 -0.013368 -0.50096 -0.26827 -0.015947 0.23313 -0.32278 0.23526 -0.10224 0.13872 -0.17656 -0.43656 -0.07311 0.096214 -0.13078 0.05935 -0.16471 -0.14438 -0.34093 -0.016168 0.19924 -0.03566 -0.036708 -0.1371 0.1671 -0.30572 -0.005728 -0.14493 0.53853 -0.49534 -0.10945 0.027827 0.36872 -0.20067 -0.10309 -0.11162 -0.47774 0.19448 0.10354 0.11635 -0.047662 0.013271 0.15193 0.33299 0.29261 0.084172 0.18514 0.11776 0.090161 -0.059168 -0.23537 -0.29344 0.3255 0.01127 -0.31837 -0.22472 -0.56952 -0.12067 -0.20784 0.32679 -0.14227 0.11322 -0.33068 -0.097872 0.15841 0.072846 -0.060506 0.25681 -0.24504 -0.58511 0.29301 -0.020466 0.17702 0.14218 -0.42454 0.36104 0.11274 0.31629 -0.10743 -0.45816 -0.035327 0.3877 -0.10448 -0.087003 0.11229 -0.05248 0.3034 0.12302 0.31033 0.24073 -0.14058 
8Mb 0.14206 0.15473 -0.11637 -0.14248 -0.059108 -0.0028805 -0.011489 -0.12801 0.11016 -0.076586 -0.19216 -0.063003 0.1313 -0.27863 -0.025811 -0.049311 0.23856 0.15773 0.11485 -0.154 0.064562 -0.10012 -0.25236 0.10832 0.057308 0.11849 -0.037424 0.2287 0.014685 -0.0071511 -0.019848 0.095761 0.069695 -0.032221 0.20382 -0.27566 -0.0055752 -0.054878 0.29125 0.072751 0.18713 0.011591 -0.064911 0.00016073 -0.031283 0.093962 0.11978 -0.048434 0.0082092 0.017483 0.12621 0.34635 -0.29828 -0.24344 0.012947 0.00035285 0.098289 -0.20457 -0.072345 0.093066 -0.23032 -0.04986 -0.17635 -0.062219 -0.086466 0.067626 0.044782 -0.062571 0.017388 0.33309 0.17744 -0.095345 0.18599 -0.17246 0.097011 -0.31208 0.12921 -0.063939 0.25347 0.13187 0.2276 -0.015579 -0.072971 -0.079882 -0.10894 -0.070967 -0.19357 -0.16351 -0.02914 -0.16364 -0.16973 0.14005 -0.11324 -0.14582 -0.035459 0.1037 0.1112 -0.0064157 0.25393 -0.15426 
sony -0.5595 -0.16233 0.11951 0.12805 -0.19925 0.4183 0.53245 0.38333 0.0037016 0.30414 0.094976 -0.14841 -0.56262 -0.26501 0.28009 -0.034168 -0.0061769 0.42351 0.20594 -0.030682 -0.46257 -0.15921 -0.05919 0.27817 -0.42428 -0.141 0.060033 -0.046614 0.46638 -0.032554 0.46839 -0.054322 -0.47708 -0.41283 -0.55273 -0.15258 -0.023463 0.53867 0.019255 -0.19714 -0.1034 0.3178 -0.0045937 0.15139 -0.44655 -0.34872 0.27939 0.56787 -0.20087 -0.026239 -0.50439 -0.028034 -0.057018 -0.26161 0.20564 0.28353 -0.15408 0.017179 -0.37565 -0.10935 -0.039878 -0.15259 0.1476 -0.51062 0.091958 -0.26058 0.070536 -0.061182 0.46743 -0.043382 0.10372 -0.38363 -0.19953 -0.12635 -0.36908 0.15175 -0.025568 -0.29104 0.060362 0.20563 0.11761 0.014471 -0.35168 -0.24737 0.27412 0.083673 -0.08077 -0.19343 -0.11835 0.065934 0.36865 -0.040068 -0.25789 0.40635 0.020533 0.094389 -0.41244 0.3949 -0.10164 0.052433 
USB3 -0.20231 -0.37215 -0.15214 0.011428 0.44148 0.0010288 0.28487 0.48948 0.18793 -0.0039363 0.19461 -0.37368 0.12449 -0.24203 0.23899 0.04838 -0.070969 0.028911 0.33783 0.056347 0.0075832 0.0044426 0.35305 -0.055866 -0.0092121 -0.12658 0.026649 -0.44617 0.11231 -0.36224 -0.023894 -0.12472 0.056986 0.438 -0.29855 0.023948 0.017041 0.22592 -0.10328 -0.39605 -0.16924 -0.018484 0.17886 0.097581 -0.10432 -0.12565 0.028829 0.10194 -0.19479 -0.073692 -0.072954 0.089338 0.23718 0.21703 -0.18072 -0.0048614 -0.083007 -0.037378 0.16018 0.20485 0.024694 -0.09501 -0.063855 -0.12359 0.19207 -0.23571 -0.22406 -0.098543 0.25472 -0.07851 0.30454 -0.23407 0.0084122 -0.082463 0.09741 0.038882 0.078823 -0.070708 -0.34444 0.14559 -0.25637 -0.041249 -0.2684 -0.041854 0.12746 -0.15565 -0.11033 -0.061953 -0.53326 -0.1043 -0.049084 -0.25269 0.18839 0.076832 0.46115 0.080361 -0.061951 0.34164 -0.081738 -0.079873 
desparation -0.349 -0.64445 -0.20655 0.081155 0.014246 0.24758 -0.023628 0.074957 -0.030204 0.3409 0.24617 0.28952 -0.7679 0.17179 0.18027 0.1124 0.20682 -0.12833 0.5276 0.17176 -0.19259 -0.36054 -0.19395 0.077966 0.23229 -0.28451 0.42386 0.0030836 0.09464 0.16161 -0.25726 -0.13756 -0.50112 -0.0049005 -0.95331 -0.36035 -0.28896 0.17389 -0.21467 0.26013 -0.016369 -0.046147 -0.043802 -0.25275 0.33722 -0.57707 -0.30164 -0.09412 -0.55548 -0.11803 0.18325 0.20399 0.43466 -0.018421 -0.075639 0.55839 -0.58892 0.018141 -0.038775 -0.12882 -0.40671 -0.024469 0.5823 0.24942 0.35107 -0.56947 0.10466 -0.36555 0.027932 -0.00094569 -0.24976 0.25523 0.19517 -0.3207 0.091565 -0.17563 0.18447 -0.25125 -0.2345 -0.1721 -0.023067 0.1623 -0.19564 -0.16145 0.17547 -0.18162 0.1807 0.068139 -0.26067 0.50046 0.35218 0.34934 0.16468 -0.043841 0.18534 0.18089 0.0047422 0.48785 -0.27532 -0.66455 
defrags -0.38853 -0.20385 0.20904 -0.092484 -0.07635 0.17214 0.43235 0.33044 -0.22907 -0.056686 0.15093 -0.2631 -0.29604 -0.20085 0.72517 -0.37199 0.056449 0.067976 0.12985 0.1599 0.32045 -0.21306 0.12315 0.1696 0.12385 -0.28069 0.36602 -0.29544 0.4461 0.037997 0.48779 -0.62781 0.29149 0.39551 -0.074769 -0.11784 -0.47544 0.45421 0.037459 -0.32325 -0.42518 -0.04124 -0.12512 -0.49822 0.15106 -0.32423 -0.24612 0.16164 -0.1936 0.02657 -0.3599 0.29062 -0.19002 -0.33745 0.53454 0.82771 -0.44822 0.24702 0.13113 -0.0056689 -0.43778 0.19388 -0.25244 -0.014672 -0.18407 -0.32235 0.18636 -0.017048 0.37972 -0.17373 0.079305 0.013976 -0.18985 0.21235 0.10854 -0.10753 0.038859 -0.33112 -0.23189 0.22665 -0.39396 0.14457 0.1019 -0.17593 0.22864 0.69825 0.39971 -0.50341 -0.13885 -0.11676 0.030825 -0.2571 0.067151 0.4333 0.47572 0.50703 0.1757 0.39612 -0.0036726 -0.13763 
29/ -0.080345 0.014075 -0.0082784 0.35659 -0.12369 0.02811 0.12915 0.20415 -0.19647 -0.11836 -0.074976 -0.26674 -0.013322 -0.020228 0.25176 -0.19913 -0.36598 0.26297 0.49956 0.17678 -0.26172 0.11036 0.3718 -0.073381 -0.096784 -0.21774 -0.0098526 0.087674 -0.17735 -0.30301 0.15753 -0.35996 -0.28582 -0.23284 0.54873 0.15761 -0.10191 0.078572 -0.31217 -0.030335 -0.064376 0.22973 -0.02934 -0.033639 -0.15955 -0.3241 0.52981 0.26125 -0.30551 -0.34538 -0.09589 -0.64964 0.23461 0.048716 0.076959 0.26869 -0.13857 0.097041 -0.28283 -0.087128 -0.022608 -0.048529 -0.17839 0.43993 -0.066172 -0.011882 -0.1221 -0.073042 0.3152 0.062592 0.36085 -0.082847 -0.010631 0.295 -0.055348 0.24655 -0.1792 0.050423 -0.74549 0.52227 -0.51888 0.28812 0.082484 -0.1469 0.32467 0.31077 0.03991 -0.0020056 -0.29173 0.1526 0.33027 -0.15628 0.14869 0.15256 -0.076274 -0.28894 -0.20505 0.18301 0.014608 -0.54676 
abouy -0.39964 -0.40412 -0.17713 0.19837 0.40477 -0.25189 0.38928 -0.025384 0.067997 -0.001556 -0.1759 -0.30999 -0.39347 -0.51051 0.31003 -0.26129 -0.025958 0.15551 -0.23879 0.056136 0.059028 0.25975 0.025985 0.18636 -0.22066 0.64176 0.11771 -0.26533 0.1219 -0.22965 0.42635 0.086131 0.080628 -0.013929 -0.21419 0.042544 -0.23878 0.17079 0.32587 -0.026003 -0.40626 0.25617 -0.0074484 0.23994 -0.092135 -0.12572 0.3289 0.05869 -0.30584 0.1106 -0.12148 -0.064439 0.28715 -0.1234 -0.27905 -0.06545 0.45436 -0.22976 0.27782 0.32687 -0.10435 -0.070674 -0.44191 -0.23489 0.055665 -0.20686 -0.15055 0.098013 0.40853 0.063598 0.03714 0.33381 0.20444 0.069591 0.18816 -0.21949 0.045023 0.185 -0.17108 0.023385 0.36322 0.13437 0.077103 -0.17833 0.065885 0.01274 -0.0035331 -0.22043 0.28886 0.19686 0.5346 0.20195 -0.25953 -0.12371 -0.5365 0.38524 -0.1639 0.22604 0.44689 0.22949 
interneting -0.51824 -0.79909 -0.2677 -0.0067583 0.17372 0.10507 0.60566 0.21248 0.071808 0.27117 0.24039 -0.14605 -0.47111 -0.13256 0.12527 -0.35815 0.010338 0.036134 0.29499 -0.065728 0.33766 -0.11474 0.27961 -0.02842 -0.35174 -0.5362 0.24956 -0.0063443 0.36357 -0.10155 0.23152 -0.32459 -0.27327 0.24067 -0.47193 0.21588 -0.16105 0.37739 0.011188 -0.12523 -0.13106 -0.24668 0.19939 -0.32104 -0.0089073 -0.62528 0.35693 0.064202 -0.24612 -0.48858 -0.30358 0.0096733 0.42368 0.47977 0.073782 0.60406 -0.032619 -0.21412 -0.026228 -0.36123 -0.085703 -0.24012 -0.21035 -0.19232 0.22066 -0.34386 0.32515 -0.22226 0.25424 -0.16497 -0.10388 0.024635 0.18781 -0.12741 0.039328 -0.12443 -0.0054467 -0.36187 -0.19048 0.035398 -0.12687 -0.10221 -0.062841 -0.090287 -0.040341 0.14031 0.03281 0.1137 -0.16693 0.19808 -0.052415 -0.2239 -0.31348 0.30622 0.18661 -0.13479 -0.053338 0.19474 -0.15902 0.1618 
/ 0.0070501 0.00088324 0.0057789 -0.0056434 -0.0008296 -0.0064142 0.0067226 -0.00087939 -0.00070061 0.0030226 0.004102 0.0020424 -0.0085125 -0.0077229 0.0029329 -0.0093947 -0.0088075 0.0035478 0.0086072 -0.0071164 -0.0095415 0.0048015 -0.0061589 0.0081653 0.0084803 -0.0052911 0.0010933 0.00061754 -0.0049755 -0.0082499 0.0044172 0.0026743 -0.0034411 -0.0012415 0.0012509 0.0027834 -0.0090365 -0.0095784 -0.0071861 0.0060201 0.0091799 -0.0061554 -0.0033028 -0.0049998 -0.0095325 -0.0098693 0.0015611 -0.0057049 -0.0087238 -0.0018468 0.0079044 -0.0072691 0.0069268 0.0035445 0.0083057 0.0074104 -0.0029922 -0.0075032 0.0028297 -0.0037071 0.002849 -0.0086789 -0.0046196 0.0050297 -0.0050505 0.004282 0.0081026 0.0053941 0.0065995 0.00020377 -0.00029416 -0.0047574 -0.0090067 0.0078792 0.0041667 0.0035603 0.0080823 -0.0019758 0.0013998 0.008584 -0.0050215 0.0095092 -0.0025976 -0.0046833 0.0054789 -0.0084382 0.0011261 0.0043433 -0.0060379 0.0087916 -0.0076915 0.0082738 0.0080362 0.002867 0.0060902 0.0044485 -0.0050431 -0.0097322 0.0082084 -0.0051448 
softwares -0.26836 -0.18625 -0.12702 -0.32282 0.20917 0.037094 1.0078 0.64145 -0.17446 0.076872 0.18039 -0.59413 -0.70324 -0.43617 -0.1554 -0.092693 0.28068 -0.15253 0.53085 -0.050278 0.10895 -0.19415 0.22732 0.142 -0.31571 -0.55577 0.32356 -0.30161 -0.028328 -0.2831 0.68685 -0.43263 -0.43094 0.36662 -0.16867 0.54114 -0.25571 0.022207 -0.28489 -0.19021 -0.39737 0.16427 -0.017204 0.24642 0.20082 -0.636 0.68418 -0.25212 -0.1788 -0.12671 0.11599 -0.15457 0.67609 0.24948 0.47237 0.55508 -0.13514 0.12682 0.24838 -0.47304 0.56675 0.36827 -0.52866 -0.26957 0.36573 -0.25153 -0.1601 -0.58539 0.39462 -0.65813 -0.25725 -0.096181 0.024183 -0.0046979 0.026639 -0.061795 -0.78027 -0.23618 -0.3628 0.098065 -0.63762 0.19326 0.37532 -0.30147 0.37787 0.18845 0.099172 -0.10313 -0.11183 0.30347 0.094824 -0.22063 -0.34681 0.063855 -0.0010488 0.032745 -0.29178 0.16907 -0.087982 -0.025956 
theApple 0.0054967 0.21109 0.16063 0.018297 0.058567 -0.16546 0.25047 0.24651 0.25259 0.22294 0.20867 0.28122 -0.13912 -0.35736 0.067251 0.10777 0.29192 0.52546 0.16205 0.088772 0.084646 -0.17969 0.064949 0.074623 0.20778 -0.082349 0.25843 -0.15187 0.24193 -0.19578 0.29889 -0.076753 0.098783 -0.212 -0.057503 -0.0099591 -0.11234 0.011082 -0.14818 -0.054342 0.073122 -0.18552 0.16075 -0.027584 -0.10165 -0.29558 0.29721 0.14012 -0.061308 0.19193 -0.18172 -0.099943 -0.0042794 -0.044623 0.063637 0.061614 -0.043689 -0.010001 0.17971 0.002672 -0.03271 -0.37997 0.15473 -0.052485 0.17021 -0.28282 0.092856 0.046729 0.12702 -0.12393 -0.16493 0.066215 -0.077277 -0.0073591 0.26798 -0.2087 -0.011984 -0.16292 0.10714 0.086031 0.20745 0.17814 0.15493 -0.014411 0.36194 0.0037577 0.041003 -0.32973 -0.27346 -0.033066 -0.092069 0.0075369 -0.20056 0.093552 0.0043162 0.19528 -0.00055998 0.48002 0.038053 -0.10026 
adversary -0.88737 0.071708 0.46206 0.17272 0.1685 0.36156 0.35451 -0.20483 0.23976 0.84708 -0.029277 -0.34192 -0.29685 0.08895 0.2408 -0.20718 -0.14104 -0.23242 0.31793 0.50921 -0.0002088 -0.51367 -0.34002 0.15675 -0.077361 -0.20558 0.16248 -0.048491 0.48758 0.051777 -0.50155 -0.56637 0.18743 0.029726 -0.19447 0.48958 -0.054431 0.15157 0.41835 0.14543 0.17373 0.021084 0.35265 0.063562 -0.015795 -0.11673 0.29195 0.37019 -0.10311 -0.39319 0.057458 -0.13083 0.25201 0.071447 0.037286 0.0091771 -0.071959 0.33706 0.21901 0.51684 -0.066326 -0.15293 -0.12308 0.032429 0.2713 -0.39533 -0.16797 -0.33641 0.15404 -0.54539 0.44592 -0.22924 -0.27634 -0.6754 0.13348 0.16709 0.3339 -0.0051365 -0.67771 -0.094453 0.03716 -0.64486 -0.15709 -0.1572 0.51973 -0.098213 0.21362 0.35275 -0.12467 0.36749 0.32417 -0.20828 -0.44848 0.43742 0.092916 0.34937 -0.47969 0.38352 -0.141 0.050241 
MacOSX -0.21199 -0.17785 -0.10833 0.20404 0.28856 -0.20948 0.10685 0.5316 0.15507 0.10318 0.2102 -0.028023 0.23815 -0.090886 0.20325 0.055607 0.039847 0.067988 0.25214 0.24909 -0.12189 -0.12025 0.017711 -0.23624 0.098088 -0.22164 0.20208 0.029524 -0.028548 0.10222 0.16771 -0.16567 -0.091555 0.0026576 0.083094 -0.062744 0.19251 -0.20161 -0.13916 -0.19665 0.29277 -0.096522 0.10828 -0.058054 -0.0085729 -0.30605 0.009536 -0.030056 0.14216 0.0041208 0.041625 -0.14405 -0.26651 0.11491 0.20423 0.089833 0.12289 -0.32181 0.30284 -0.072285 0.01899 0.050608 0.052676 0.0060367 0.016556 0.18009 0.026131 -0.055464 -0.1278 -0.2737 -0.0057129 -0.036302 -0.10187 0.11403 0.17554 0.06313 -0.042091 -0.060779 -0.090966 0.24057 0.0011485 -0.20243 -0.16863 -0.44771 0.20515 -0.26804 0.057983 -0.5283 -0.0070993 -0.25097 -0.060885 -0.25947 -0.20998 0.09903 -0.0012427 -0.034757 -0.20662 0.050486 -0.27915 -0.16354 
D620 -0.59619 -0.079697 0.058454 -0.11378 0.069718 0.19706 0.13146 0.19769 -0.10973 0.23374 0.071494 -0.048726 -0.02156 0.0082676 0.39191 -0.05339 -0.016991 0.17154 0.29987 0.28185 -0.28213 -0.31813 -0.1502 0.1873 0.05058 0.10603 0.023518 -0.14416 -0.15852 -0.19656 0.15814 -0.35358 -0.085713 -0.10641 -0.17081 0.090937 0.048672 0.28952 -0.24419 -0.16851 -0.034907 -0.10458 -0.086872 -0.15071 0.056415 -0.10354 0.12028 -0.12012 -0.074138 -0.18315 0.17239 -0.070049 0.15721 -0.12057 0.13488 0.24333 -0.12929 -0.15749 0.58822 -0.17564 0.096772 0.015038 -0.4881 0.2795 -0.27233 -0.16123 0.11995 -0.516 0.18857 -0.03075 0.21991 -0.10282 -0.1432 -0.18648 0.024281 0.2041 0.020783 0.052241 -0.027568 0.20828 0.024114 -0.24472 0.015234 0.086553 0.075244 -0.017248 -0.012748 0.059832 -0.24812 -0.063144 0.077407 0.16091 0.0047272 0.2132 0.016824 0.32725 0.039354 0.38786 0.23627 0.61702 
verion 0.086663 -0.38765 -0.1002 0.20367 0.17589 0.24043 0.54117 0.35008 0.47905 0.19999 -0.040706 -0.61012 -0.20495 -0.40726 0.27996 0.13473 -0.12714 0.34611 0.02378 -0.035312 -0.15176 0.018888 0.22499 -0.063727 -0.0016263 0.046458 -0.24336 -0.15008 0.50372 -0.1941 0.43128 -0.14351 -0.044129 0.14559 -0.15123 -0.31792 -0.25714 -0.10968 -0.042871 -0.62919 -0.65306 0.20758 0.051924 0.13705 0.45625 -0.14489 0.51197 0.10541 -0.15633 -0.049998 -0.61497 -0.0084799 -0.048589 0.12979 0.1573 0.029146 -0.24383 -0.031662 0.36272 -0.31211 -0.70044 -0.66444 0.19221 0.1003 0.38592 -0.30385 -0.02093 0.34791 -0.038786 0.3685 0.014031 0.12801 -0.052557 0.5815 0.23995 -0.51658 -0.28803 -0.36937 0.37736 -0.086391 0.14484 0.34819 0.092074 -0.096536 0.26718 0.31136 -0.18073 -0.68158 0.017493 -0.040942 0.34742 -0.065454 -0.53966 0.5347 0.077782 0.16601 -0.15721 0.31419 0.040105 -0.25879 
Harddrive -0.084137 -0.25064 -0.037697 0.23161 0.083356 -0.17174 0.27076 0.25664 0.24831 0.084116 0.07526 -0.009889 -0.31203 -0.11939 0.20673 0.40113 -0.20617 0.16227 0.36868 0.16316 -0.12874 0.036413 -0.05893 -0.27382 0.089311 -0.39733 -0.17187 0.33573 0.052823 0.42772 0.31269 0.13125 -0.46177 0.15089 -0.15607 -0.15488 -0.16966 0.06333 -0.20078 -0.16278 0.068205 0.059647 -0.043666 -0.029254 0.11142 -0.18536 0.21069 0.059427 -0.084462 -0.045594 0.023631 -0.090733 0.12082 0.11472 0.15212 0.36021 -0.044171 -0.23968 0.42873 0.11985 0.1765 -0.037304 -0.070622 0.035798 0.23665 -0.34917 -0.041785 -0.077016 -0.00036737 -0.19351 -0.30773 -0.32762 -0.49754 -0.14611 0.096343 -0.0035349 0.033372 -0.031667 -0.2065 0.30134 -0.13644 -0.036338 -0.22448 -0.23357 0.20593 -0.20536 0.42416 -0.30047 -0.14476 -0.030925 0.36378 0.060112 -0.017899 0.013051 -0.077873 0.26023 0.039276 0.23994 -0.15437 -0.17488 
unrepaired -0.10911 -0.18054 0.36246 0.19196 -0.54315 0.020509 0.79007 0.43296 -0.0051368 0.31177 0.59796 -0.061918 -0.1054 -0.45282 0.29349 0.051309 0.079934 -0.010771 0.63612 -0.15821 0.11579 -0.15878 0.02336 0.35548 -0.30861 -0.2029 0.32324 0.17474 0.29783 0.02521 -0.29595 -0.50095 -0.10772 0.17821 0.0071477 -0.36932 -0.26796 0.22056 -0.048658 -0.032084 0.35864 -0.43329 -0.14315 0.063255 0.60665 -0.21159 0.073484 0.22113 -0.17914 0.095917 -0.15524 -0.49214 0.03392 0.019878 -0.097115 0.32022 -0.048575 -0.020083 -0.050902 0.11641 0.25459 0.0024673 -0.10367 0.19162 0.57221 -0.52741 -0.26205 -0.38823 0.11498 -0.26381 -0.15005 0.13602 -0.07677 -0.69545 -0.11453 0.30372 -0.23208 -0.057468 -0.094716 0.13651 -0.023098 -0.017799 -0.35158 -0.21238 0.20785 -0.054296 0.35798 -0.011804 -0.4742 0.23347 0.26711 0.027745 0.41765 -0.26047 0.26581 0.069576 -0.040609 0.30992 0.23845 -0.21079 
tramezzinis -0.47539 -0.13504 -0.1503 0.32719 0.3136 0.17017 0.58328 0.19738 -0.15203 0.066893 -0.15205 -0.16411 -0.39674 -0.2224 -0.34662 -0.06945 -0.11103 0.29256 -0.0080086 -0.27639 0.012469 0.27599 0.14823 0.18189 0.014284 0.11432 0.022482 -0.23854 0.47144 -0.16693 -0.0042471 -0.13618 -0.53138 -0.16343 -0.18762 -0.22822 -0.28105 0.10113 -0.26896 0.076138 -0.1702 -0.077559 -0.3061 0.0087701 0.3202 -0.4286 0.13925 -0.062682 -0.03235 -0.27895 -0.46768 0.020892 -0.023995 0.1145 0.13045 -0.050202 -0.036374 -0.022357 -0.0862 -0.050507 -0.26849 -0.13335 -0.079115 -0.018033 -0.01296 -0.31323 -0.097966 0.13216 0.45895 -0.057954 -0.12845 -0.22887 0.1164 -0.26236 -0.24876 -0.21337 0.06289 -0.038341 -0.032908 0.35067 0.052505 0.4506 0.0045156 -0.37183 0.19506 0.22658 0.25181 -0.20383 0.050354 0.2516 0.32191 0.0014415 -0.21318 0.063223 0.36855 0.18356 -0.21314 0.48646 -0.011248 -0.095533 
20's/ -0.059741 0.2889 0.066344 0.026856 0.001494 -0.006673 0.10014 0.20888 0.11433 0.31116 0.025576 0.031981 -0.32488 -0.041765 0.34843 0.022179 0.33608 0.20597 0.14672 -0.15329 -0.26508 -0.12798 0.35409 0.26387 -0.19724 -0.067171 0.13368 -0.18578 -0.057172 -0.050914 0.10505 -0.36149 -0.0064226 -0.27523 -0.13178 -0.37266 -0.28281 -0.16519 -0.22092 0.063349 0.1156 0.21312 0.26721 -0.1366 0.068075 -0.20573 0.2829 -0.14375 0.17765 -0.22902 -0.1322 0.10274 -0.010827 -0.15924 -0.098962 -0.0094476 -0.18486 -0.15219 -0.073881 -0.40705 0.071902 0.1227 -0.0079899 -0.088191 -0.10204 -0.013511 -0.15982 -0.17169 -0.10013 0.13667 -0.56571 -0.10739 0.26787 -0.15539 -0.05593 -0.035335 0.093016 -0.61003 0.24845 -0.34079 -0.074899 0.47317 -0.41629 -0.55938 0.21442 -0.21104 -0.053549 0.25867 -0.075493 0.13383 0.00020188 0.075576 0.26162 -0.45914 -0.26589 0.11242 0.097443 0.34722 -0.050373 -0.15879 
SSD -0.25108 -0.055273 -0.10247 0.56462 0.067082 -0.11729 0.45871 0.71609 0.0096676 0.55875 -0.073472 0.017375 0.47386 -0.40005 -0.20837 0.24806 -0.31835 -0.11557 -0.1818 0.83092 -0.21174 0.28864 -0.054041 -0.13308 -0.4506 0.11613 -0.12306 -0.05772 -0.011429 0.055519 0.04869 0.24226 -0.30114 -0.12329 -0.38936 -0.43661 -0.45726 0.17494 0.017502 -0.4919 0.44469 -0.2773 0.14177 0.59865 0.022021 -0.31215 -0.11102 -0.14346 -0.60353 0.25544 -0.64407 -0.2249 0.36551 -0.17782 0.28447 0.036108 -0.010577 -0.37059 0.34589 0.32278 0.14711 -0.27505 0.013842 -0.22595 -0.10543 0.1201 0.046423 0.3298 -0.42266 0.40379 -0.18783 0.32085 0.14922 0.16763 0.14482 0.027201 0.19114 -0.30555 0.15369 0.1378 -0.30662 0.0036697 -0.075852 0.20154 0.024797 0.057465 0.37861 -0.522 -0.28591 0.030179 -0.026795 -0.13172 0.11146 -0.045124 -0.69826 0.34603 -0.065345 0.092065 0.17037 -0.022263 
breakfast/ -0.32361 -0.3316 -0.026182 0.2363 0.016282 0.2984 0.71372 0.48175 -0.18376 0.59459 -0.15436 -0.085299 0.16069 -0.090074 -0.53776 0.27594 -0.3085 0.32476 0.14245 0.2684 -0.10916 0.35236 0.030363 -0.1649 -0.058324 -0.19601 0.053019 -0.24102 0.38226 -0.039191 0.16246 0.15264 0.21319 -0.023254 -0.38714 0.11027 -0.39385 -0.14787 -0.45346 0.10263 0.084515 -0.34255 0.1774 -0.20484 -0.075693 -0.14524 -0.045083 -0.065458 0.37849 0.069933 -0.18646 -0.30149 -0.23529 0.13176 0.22129 0.093905 0.27443 -0.66822 0.18587 0.60582 0.10744 0.22916 -0.21366 0.2401 0.67066 -0.23541 0.057605 0.033668 0.24324 0.022942 -0.22189 -0.24587 -0.017319 0.075244 0.51244 -0.51068 0.41447 -0.090399 -0.12196 0.31677 0.095232 0.22633 -0.55851 -0.060169 0.022256 -0.064846 0.45619 -0.17756 0.0076345 -0.17746 0.066598 0.22353 -0.3253 -0.18429 -0.28601 -0.13055 -0.64304 0.050947 0.074454 0.0089456 
Firewire -0.08666 -0.044957 -0.38421 0.14336 0.38977 -0.028492 0.3064 0.68258 0.086259 0.59923 0.44787 -0.12987 0.1018 -0.1868 -0.033377 0.15677 0.14331 -0.11442 0.11375 -0.0079907 -0.061274 0.052972 0.11867 -0.021908 0.20524 -0.30086 0.10477 -0.29736 0.26434 -0.027335 0.53896 0.20691 -0.12145 -0.2931 -0.037114 0.17792 0.1709 0.46614 -0.27867 -0.49148 0.014948 0.017725 -0.47765 -0.20064 -0.60535 -0.37378 0.55941 0.1511 -0.21916 -0.069793 -0.24808 0.044398 0.25254 0.3719 0.15617 0.18191 -0.08403 0.063021 0.16065 -0.24369 -0.29213 -0.41225 -0.17916 -0.20369 -0.17522 -0.42145 0.13522 0.030172 0.33131 -0.23601 0.068882 -0.30088 -0.4552 -0.2703 0.16175 0.6194 -0.2543 -0.51621 -0.29095 -0.041377 -0.32146 -0.10538 -0.082672 -0.48741 0.46111 -0.25684 0.53001 -0.6365 -0.075147 -0.37109 0.086632 -0.12392 -0.27371 0.12544 -0.26226 0.51745 0.069253 0.65922 -0.18127 -0.29853 
harddrives -0.20666 -0.099828 0.027088 0.17253 0.086505 -0.43657 0.30365 0.26735 0.2071 0.19104 -0.068451 -0.064792 -0.46336 -0.091627 0.39606 0.06985 0.07993 0.1526 0.38362 0.15129 -0.095352 0.11777 -0.097732 0.13712 -0.093659 -0.32933 -0.094615 -0.10969 0.15664 0.28074 0.077961 -0.057489 -0.24643 0.077682 -0.20465 -0.25019 -0.39062 -0.11381 -0.082849 -0.091995 -0.16899 -0.16901 0.11988 -0.041389 0.11427 -0.28956 0.11491 0.022195 -0.12798 -0.073812 0.10621 0.097151 0.37663 0.057161 -0.059123 0.12405 -0.09554 -0.061041 0.35778 0.25243 0.24628 0.19875 0.096212 0.021219 0.24142 -0.14477 -0.0048373 -0.1347 0.24801 -0.063855 -0.2241 -0.09134 -0.21395 -0.051041 0.12937 -0.25724 0.0010905 -0.16143 -0.14531 0.12791 -0.023279 -0.018271 0.16623 0.038521 0.30905 -0.01176 0.06568 -0.14152 -0.18765 0.26548 0.46765 0.16737 -0.10745 -0.076358 -0.01884 0.19302 -0.15147 0.11339 0.071941 -0.24072 
brunch/ -0.50988 -0.12173 -0.33104 0.12847 0.16231 0.46883 0.52526 -0.056841 -0.12307 0.51047 -0.58804 0.21423 -0.14592 -0.13977 -0.51611 -0.084794 -0.18736 -0.13685 0.30039 0.20324 -0.59754 0.64047 0.25531 -0.41994 -0.21674 -0.11334 -0.053268 0.0024339 0.31621 0.0074782 0.22924 0.01576 0.22456 -0.0041819 -0.22638 0.045247 -0.693 -0.20505 -0.63775 0.02155 -0.042347 -0.50275 0.075656 -0.58072 -0.21148 -0.032536 0.15055 0.10371 0.42417 -0.2124 -0.53059 -0.26244 -0.24292 0.32972 0.25935 -0.034148 0.39275 -0.57728 0.34602 0.15951 -0.16166 0.27477 -0.40829 -0.13096 0.38133 -0.15295 -0.037013 -0.085238 0.34158 0.11599 -0.28461 -0.35048 -0.17402 0.0068554 0.44187 -0.47723 0.30002 -0.24582 -0.34626 0.373 0.074676 0.28693 -0.38643 -0.25883 0.050429 -0.45486 0.58226 -0.38355 0.50955 0.05022 0.3587 0.063543 -0.12547 -0.43097 0.1488 -0.14686 -0.57955 0.047106 -0.14723 0.11193 
devises -0.2228 0.0098773 -0.50401 -0.027724 0.157 -0.018482 0.26823 0.11197 -0.65504 0.041923 0.49619 -0.032316 -0.071092 0.17195 0.21336 0.19122 0.01837 0.28885 0.30472 0.36331 -0.18441 0.22131 0.36629 0.59414 0.11784 -0.53151 -0.11729 -0.64224 -0.10605 -0.092116 0.44519 -0.47064 -0.39349 0.53638 -0.25707 0.30466 0.17488 0.22747 -0.51983 -0.59792 0.0069885 0.040382 -0.42086 -0.14652 -0.17312 -0.7603 0.39514 0.11927 -0.095259 -0.36743 -0.09057 0.048369 1.0825 0.38364 0.3195 0.17524 -0.44412 0.28573 0.12927 0.17617 -0.036451 -0.25293 0.047131 0.031736 0.70167 -0.26453 0.19877 -0.34341 0.55202 -0.36522 -0.11227 -0.40276 0.67765 0.087051 0.30619 -0.28233 -0.62789 -0.46699 -0.21993 -0.077968 0.10631 -0.27787 0.20457 -0.19433 0.27648 0.040532 0.70087 -0.65314 -0.30504 0.47892 0.41178 -0.42133 -0.23401 -0.17633 0.31685 -0.18309 -0.35326 0.26419 0.22445 0.23979 
Grapfruit 0.26591 0.19216 -0.2299 0.59149 0.39552 -0.15233 0.0038325 -0.14404 0.17623 0.0023453 -0.058392 -0.28692 -0.42001 -0.60692 0.44035 -0.021657 0.34741 0.28445 0.1428 0.27045 -0.24897 0.045173 -0.37461 0.26794 0.43011 0.046276 0.17945 -0.24941 0.3232 -0.049521 0.23655 -0.45734 0.27174 -0.38716 0.063721 -0.22918 0.18778 -0.0014813 -0.2962 -0.20855 0.075383 0.0098052 -0.18092 -0.19556 -0.098698 -0.59214 0.32471 0.0090769 -0.15073 0.59678 -0.14279 0.1646 -0.69251 -0.10498 0.30643 0.088056 0.11623 -0.28923 0.41729 -0.25208 -0.25111 -0.71299 -0.03726 0.13376 -0.07592 -0.12219 -0.43129 -0.28371 0.026555 0.22522 -0.097184 -0.36702 -0.1027 0.076618 0.20823 -0.44393 0.10159 -0.23501 0.25204 0.21439 0.060758 0.052351 -0.15412 -0.31163 0.54979 -0.44748 0.30096 -1.2328 0.13176 -0.25708 -0.13058 -0.16152 -0.36611 -0.10615 -0.46336 0.4695 -0.089902 0.52418 0.2782 0.17283 
entr -0.43944 0.30096 -0.5217 0.23042 0.5627 0.28573 -0.18565 0.087168 -0.41983 0.52844 -0.17712 -0.32841 -0.16838 0.068117 0.64263 -0.38641 0.40874 -0.023113 0.29724 0.56087 0.3489 -0.03181 -0.11717 0.56923 -0.10251 0.053834 0.40062 -0.18007 -0.020321 -0.24799 -0.15413 -0.45368 0.18312 -0.059362 0.45515 0.4687 0.23152 0.18092 0.51782 0.071071 -0.14878 -0.072748 0.076142 0.22052 -0.10239 -0.9174 -0.33175 0.56479 0.16432 -0.68909 -0.33353 0.21221 0.36526 0.42997 -0.08925 -0.085867 -0.31396 0.35147 0.19849 0.27756 0.096739 -0.35764 0.18844 0.61134 0.68222 0.021425 -0.16957 -0.23014 0.09913 0.40851 0.2274 -0.44374 -0.097932 -0.31622 -0.92797 -0.15377 0.3618 -0.16418 -0.2529 0.095582 0.032337 0.4319 0.072566 -0.22367 0.37478 0.33424 0.59061 0.21638 0.085385 -0.22635 0.43506 -0.088724 -0.093645 0.35659 0.022253 -0.65614 -0.76419 0.1719 0.46373 0.048999 
uninstall -0.20103 -0.55823 0.20354 0.0095869 -0.031324 0.2631 0.43631 0.21724 -0.080869 -0.18915 0.60865 -0.21849 -0.23799 -0.83239 -0.25489 -0.25255 0.17508 -0.1285 0.35322 -0.1722 0.0098239 -0.061486 0.28825 0.19004 -0.088098 -0.49683 0.791 -0.020636 0.36633 0.014708 0.11564 -0.36235 -0.05917 0.38275 -0.30137 -0.39149 -0.21453 0.50919 -0.090309 -0.34299 0.021666 -0.55453 -0.13728 -0.38638 0.4925 -0.45389 0.12714 0.087248 -0.63923 -0.32672 0.06164 0.10858 0.031645 -0.031358 0.25204 0.53149 -0.14247 0.12288 -0.24947 -0.015232 -0.17647 -0.012675 0.12279 -0.0090354 0.5572 -0.3618 -0.041552 -0.54422 -0.35213 -0.19941 -0.27308 0.18196 0.40601 -0.23049 -0.31348 0.41562 -0.54948 -0.074179 -0.28543 0.015059 -0.15348 0.41371 -0.032492 -0.35768 0.26055 -0.2371 0.10067 -0.29782 -0.11415 0.058636 0.17175 -0.13064 0.30584 0.030768 0.43357 0.56867 -0.050766 0.55461 -0.14361 -0.40271 
os.x -0.29592 -0.49655 -0.53511 0.44138 0.12426 0.032163 0.36627 0.075782 -0.37851 -0.46729 -0.17604 -0.049648 -0.63977 -0.55656 -0.27128 -0.05908 0.24245 0.39267 -0.049794 0.13021 -0.4926 0.43396 -0.22348 0.057581 -0.1838 0.2996 -0.044332 -0.17335 0.13832 -0.2099 0.15027 -0.13011 -0.10898 -0.23645 -0.38265 -0.089678 -0.065412 0.08406 -0.16702 -0.26018 -0.25671 0.11631 0.057602 0.13058 0.043685 -0.33086 0.40061 0.15369 0.032826 -0.028168 -0.66562 0.26003 0.13032 0.40573 0.068095 -0.035844 -0.094993 -0.10315 -0.3999 -0.36407 -0.53071 -0.45823 -0.21991 -0.35462 -0.26605 -0.44317 -0.15774 0.099897 0.13454 0.027665 -0.0063929 -0.0025828 0.51185 0.22711 -0.012921 0.21533 -0.31098 -0.15024 -0.28535 -0.051996 -0.60291 0.59299 0.14116 0.38761 0.4529 0.22572 0.10911 -0.68335 0.38246 0.44172 0.37214 -0.15616 0.18024 -0.04351 0.27108 -0.070298 0.0079024 -0.034489 -0.082382 -0.17872 
vapidly -0.23686 0.52129 0.47284 0.051509 0.269 -0.032293 0.12757 0.45552 0.12639 0.4036 -0.46967 0.16728 -0.3146 0.07339 0.38578 -0.06182 -0.10522 0.19419 0.23697 0.26272 -0.34849 0.14192 0.074359 0.42864 -0.011726 -0.025066 0.40706 -0.31255 0.1056 0.16208 -0.37155 -0.30094 0.13015 0.27499 -0.3103 -0.13518 -0.66962 0.21732 -0.25894 -0.012118 -0.21033 -0.54024 -0.24946 -0.34981 0.25404 -0.41511 -0.30167 -0.23108 -0.74671 -0.029347 -0.041736 -0.029535 0.12934 -0.24821 0.11175 0.16333 -0.37089 -0.22205 0.39287 -0.16287 -0.35096 0.24926 -0.1801 -0.20799 0.76223 0.38566 0.32017 0.15206 -0.034932 0.062932 0.088022 -0.29189 0.30508 -0.44245 -0.10978 0.28915 -0.26498 -0.087503 -0.10085 0.27158 0.11907 0.29774 0.14168 -0.069708 0.30254 0.087312 0.27066 0.17766 -0.25043 0.31122 -0.052577 -0.041485 -0.19113 0.14873 -0.38994 0.033492 0.066706 0.78679 -0.56013 -0.1599 
Notebooks -0.20646 -0.66638 0.26343 -0.035472 0.16281 0.12279 0.76527 -0.093443 -0.37225 0.69541 0.50817 -0.29941 -0.59255 0.13791 0.52649 0.32619 0.008175 -0.34576 0.40524 0.063273 -0.19398 0.10222 0.41134 0.2303 0.071233 0.16867 0.013647 -0.051174 0.15219 0.29577 0.17009 0.095757 0.19034 0.33993 -0.59877 0.10372 -0.27728 0.23862 -0.56083 -0.045185 -0.082168 0.36482 0.0010836 -0.031564 0.52639 -0.72617 0.59615 0.11725 0.19698 0.076108 -0.20055 -0.065236 0.43281 0.12821 0.56657 0.2328 0.22895 -0.28415 0.44365 -0.31245 0.026101 0.11012 -0.18714 -0.20612 0.38875 0.068764 -0.057173 -0.20894 -0.37397 -0.097159 -0.56618 -0.1423 0.34629 -0.12971 -0.062311 -0.32533 -0.33691 -0.39938 -0.7591 -0.15041 -0.084318 -0.039519 0.13701 -0.198 0.17151 0.4154 0.081493 -0.62379 -0.37361 0.2573 0.1846 -0.5922 -0.16805 0.37961 -0.072211 0.047645 -0.015884 -0.019555 0.25316 -0.041755 
McBook -0.3906 -0.22103 0.15318 0.41867 0.11624 -0.36538 1.0489 0.23948 0.063795 0.61525 0.060937 -0.31015 -0.34589 -0.54566 0.17837 -0.051669 -0.38669 0.073467 0.33666 -0.16602 -0.15144 -0.29357 0.75754 -0.0036603 -0.22176 -0.3501 0.35996 -0.13214 0.10373 -0.13327 0.10217 0.15757 -0.21026 0.2976 -0.20192 -0.30858 -0.15108 0.030288 -0.56572 -0.072673 -0.0014887 0.27259 -0.028475 -0.096412 0.25535 -0.6544 0.27195 -0.20026 -0.31494 -0.11688 -0.21759 0.20386 0.0366 -0.21857 0.34561 0.45476 0.0014476 -0.32721 0.50888 -0.21468 0.26903 0.14739 0.026964 0.018017 0.028775 -0.083943 0.0033536 -0.29156 0.27008 -0.31568 -0.20934 0.35581 -0.11794 0.39496 0.030107 -0.038642 -0.37753 -0.29865 -0.54928 0.14791 -0.022855 0.087119 -0.094145 -0.51964 0.33412 0.18294 0.3143 -0.36156 0.036671 -0.033361 0.22266 -0.087671 -0.089081 0.17691 -0.12061 0.28636 -0.0067903 0.39636 -0.43544 0.14403 
passive- 0.17856 0.18664 0.014492 0.12797 0.10707 -0.39786 0.43542 0.44113 -0.17603 0.53519 -0.38417 0.28547 -0.41681 -0.20194 0.56603 -0.1598 0.25052 -0.015137 0.26199 0.14345 -0.077641 0.31432 -0.059657 0.49388 -0.14201 0.51894 0.40107 -0.29925 0.71284 -0.064293 -0.029172 0.063697 0.0923 0.19388 -0.091811 -0.075929 -0.68258 0.31209 -0.043577 0.10957 -0.14428 0.067284 -0.1158 -0.5977 -0.20937 -0.57861 -0.05781 0.020665 -0.31764 -0.11112 -0.30615 0.36591 0.0030608 0.39767 0.11859 0.015063 0.60605 0.17878 -0.0071222 -0.19464 0.10872 -0.38625 0.1515 0.2304 0.25085 -0.47951 -0.014146 -0.4093 0.59918 0.13845 -0.30889 -0.2775 0.18438 -0.48657 -0.0052853 0.22655 0.49732 0.20878 -0.12367 0.12894 -0.19706 0.013025 0.079854 0.27573 0.32501 0.27045 0.080888 0.099329 -0.18836 0.48883 0.46786 0.18879 0.12862 0.40672 -0.37934 0.32897 -0.0035709 0.19106 0.049048 0.13633 
vostro -0.092626 -0.25153 -0.02451 0.57114 0.080521 0.22667 0.34908 0.03204 -0.25977 0.28225 -0.29824 -0.31352 -0.076642 -0.41285 -0.20534 0.03584 0.06645 0.16951 0.3647 -0.056418 -0.067746 0.14384 0.037739 0.11475 -0.25967 -0.01651 -0.10272 -0.1628 0.43758 -0.16941 0.078442 0.28429 -0.16044 -0.12375 -0.52749 -0.33613 -0.16645 0.13371 -0.03254 -0.010266 -0.26792 0.086655 0.23775 0.14706 -0.040439 -0.60469 0.1717 0.17179 -0.021021 -0.23118 -0.41241 0.15581 -0.026144 0.25232 0.17088 -0.13705 -0.12985 -0.015225 0.33142 -0.19863 -0.44112 -0.055195 -0.028099 -0.27393 0.057085 -0.46235 -0.59541 0.20281 0.46004 0.0041397 0.33735 -0.17586 0.10533 -0.29571 0.20236 0.11941 -0.24845 -0.15682 -0.14788 0.13616 0.33949 0.18106 0.077206 -0.31081 0.90071 -0.22724 0.30259 -0.60994 0.33261 0.40646 0.48207 0.077067 -0.033794 0.27739 0.33269 0.1322 -0.33443 0.34008 -0.34587 -0.39068 
BASEMENT -0.035413 -0.044511 -0.62685 -0.098569 -0.062519 -0.00092012 0.28558 0.85112 -0.082097 0.30669 -0.11903 -0.11641 -0.13399 -0.42919 0.43154 0.11708 0.20345 -0.50463 -0.35312 0.018396 -0.3976 -0.17606 0.1789 -0.28765 0.082812 0.42585 0.35382 -0.088882 0.43318 -0.91126 0.30017 -0.44373 -0.21324 0.18569 -0.40798 -0.11896 -0.060041 0.083581 -0.2078 0.087043 -0.036921 0.022245 0.32406 -0.061156 -0.28979 -0.14679 0.41923 0.51088 -0.48492 0.14034 0.032417 -0.17145 0.32665 0.77116 0.39996 0.43293 0.14241 0.22431 0.22875 0.16089 -0.28355 0.48772 -0.14947 -0.1426 0.22291 0.013542 0.11719 0.049144 -0.011224 0.22727 0.018474 -0.55035 -0.15559 -0.26757 0.46741 -0.039234 0.16341 -0.013157 -0.073183 -0.26952 0.27578 -0.227 0.20284 -0.38989 0.062595 -0.12878 0.56383 -0.66992 0.16389 -0.077733 0.72391 -0.40877 0.25751 0.6108 0.20413 1.0538 0.05801 0.75076 0.01571 -0.38794 
'mac -0.10619 0.27387 0.49219 0.30862 0.40604 0.243 0.90756 0.27775 0.26906 0.68698 0.029154 0.50937 0.15391 0.10656 -0.07218 0.14499 0.29747 0.019113 0.67137 -0.069513 -0.011564 0.14653 0.011992 0.16952 0.30019 0.45762 0.15067 0.15918 0.060077 -0.66672 -0.58976 -0.56023 -0.45739 -0.0020993 -0.51848 0.22916 -0.27294 0.66278 -0.37719 0.037215 -0.52896 -0.06583 0.91452 -0.081626 -0.12354 -1.0253 0.23093 -0.032499 -0.65803 0.08129 0.051684 -0.26562 0.53181 -0.23904 1.1539 0.15729 -0.96936 -0.023293 0.63325 0.18135 -0.25572 -0.19228 -0.023715 0.025435 0.17017 0.42076 0.40544 0.015914 0.49993 -0.636 -0.58356 0.20221 0.27536 -0.12464 -0.5089 0.64864 0.33109 -0.10745 -0.1713 0.511 0.079777 -0.047556 0.39832 -0.16476 0.69137 0.55201 -0.079396 -0.54371 0.066959 0.15613 0.1303 0.12314 -0.20493 -0.34464 -0.017733 -0.050053 -0.64686 0.60361 0.01626 -0.26343 
Desktop -0.32996 -0.39139 -0.094604 0.28362 0.1845 0.28195 0.82886 0.15993 -0.24373 0.71466 0.29999 -0.55097 -0.19426 -0.14079 0.29272 0.14156 -0.41511 0.1404 0.31939 0.24124 0.23196 0.037489 0.43273 0.0068646 0.24421 -0.17529 0.37643 -0.072107 0.36609 -0.33246 0.10151 0.010075 -0.10179 0.49809 -0.023756 0.16273 0.25105 0.61056 -0.42826 -0.007935 -0.023047 0.1387 0.19309 -0.29507 -0.0021307 -0.91788 0.28728 -0.25423 0.016927 0.053068 0.17484 -0.38159 0.40683 -0.11647 0.36809 0.14494 0.40993 -0.37807 0.089278 -0.053385 0.12699 -0.0062895 -0.11036 0.020406 -0.12747 -0.29676 -0.075476 -0.11908 -0.26775 -0.51718 -0.40707 -0.015357 -0.45477 0.12794 0.2141 0.21225 -0.2527 -0.12518 -0.53709 0.23077 -0.30395 -0.085323 0.14037 -0.42095 0.055869 -0.055938 0.18992 -0.27274 -0.12227 -0.050707 0.0083213 -0.36421 0.068794 0.15545 0.29593 0.36742 -0.2032 0.54251 -0.1989 -0.14044 
10.8 -0.46666 -0.030023 -0.060039 -0.15364 0.0040292 -0.40088 0.31153 0.51725 -0.054061 -0.27906 -0.15968 -0.72994 0.063062 -0.92713 0.57599 0.37337 -0.075227 0.083451 -0.037429 -0.33047 0.11215 0.032492 -0.15505 0.87203 -0.035889 0.12107 -0.081813 -0.40829 0.265 -0.4709 0.45621 -0.29309 0.22756 0.013307 -0.15716 -0.39241 0.36315 0.58387 0.21307 -0.49894 -0.62027 -0.088249 0.16453 -0.46708 0.13011 -0.5287 0.53531 0.44103 -0.56198 -0.37148 0.076328 -0.75622 -0.44488 0.16921 0.14732 0.51066 -0.26588 -0.23161 0.50138 -0.15685 0.044386 -0.43718 -0.6548 0.26242 -0.47381 0.059159 -0.072079 0.1206 -0.23078 0.32073 0.29292 -0.30505 -0.48585 -0.37752 0.58193 0.042017 0.097456 -0.18068 0.17358 0.32113 0.16445 0.60197 -0.015018 0.24799 0.15799 0.12808 -0.095464 -0.47871 -0.020705 0.036578 -0.32972 0.49232 0.6076 -0.070808 -0.59399 0.83774 0.23105 0.24202 0.27539 -0.040006 
Southglenn -0.28264 -0.21872 -0.17452 0.23357 0.040421 -0.092196 0.30934 0.28048 0.041845 0.18592 0.20356 0.052521 -0.016471 -0.42178 0.22685 0.29594 -0.076445 0.10258 0.54177 0.40698 -0.2112 -0.054382 -0.040761 -0.23522 -0.339 -0.27664 -0.23668 -0.053294 0.23286 -0.11936 0.5991 -0.09472 -0.32905 -0.12618 -0.23793 -0.31076 -0.33324 0.30866 0.11858 -0.19481 -0.019748 0.40079 0.026674 0.061475 -0.17084 -0.36105 0.068333 -0.17289 -0.16804 0.087657 -0.12294 0.082727 -0.059352 -0.15008 0.28869 0.24053 0.14578 0.15587 0.3721 -0.16199 -0.20326 -0.19688 -0.020259 -0.34649 0.14505 -0.14234 0.17065 -0.22219 0.10749 -0.052157 -0.10624 -0.079068 -0.22825 -0.042291 -0.053064 0.17245 -0.34414 -0.14376 -0.023565 -0.00080922 -0.078114 0.11473 -0.38413 -0.32729 0.092039 -0.18287 0.36103 -0.33542 -0.083315 -0.33744 -0.011875 0.055037 -0.1624 -0.094539 -0.25037 0.1329 -0.23847 0.25987 -0.32044 -0.055487 
reprecutions -0.19882 -0.1012 0.064913 -0.35335 -0.3173 0.13405 0.27015 0.37702 -0.33188 0.059963 0.23388 -0.060636 -0.48493 -0.37417 0.36224 0.34491 0.10083 -0.15577 0.10031 0.44636 -0.40872 0.022069 0.11929 0.10108 -0.42791 -0.13595 -0.1958 -0.24207 0.39834 0.19314 0.29484 -0.59636 0.038929 0.15939 -0.33952 -0.11226 -0.24518 0.56057 0.040359 -0.099877 -0.48112 0.17633 -0.54388 -0.043 0.0093356 -0.0855 0.28993 0.18176 0.030793 -0.1184 -0.079476 -0.22638 -0.038099 0.27553 0.20656 0.83372 -0.23647 0.12645 -0.11048 0.1276 -0.028007 -0.12623 -0.1066 0.39705 0.39078 -0.29887 0.11155 0.04002 0.29967 -0.323 -0.35427 -0.20429 0.47254 -0.38017 -0.017342 -0.19868 -0.18733 0.5496 -0.34799 -0.55394 0.12223 0.23778 0.12449 -0.2044 0.54829 -0.16978 0.16402 -0.19129 -0.11216 0.53451 0.22694 -0.23899 -0.35088 -0.1523 0.48482 0.049917 -0.064354 0.020137 -0.12532 -0.56369 
18000 -0.5806 0.21649 -0.10399 0.30509 -0.29517 -0.31429 -0.32543 0.7131 0.22698 0.15959 0.35096 0.054156 0.011639 -0.15541 0.37064 0.24086 -0.51616 0.49221 0.02429 0.091596 -0.25049 -0.4072 0.46767 -0.014683 -0.22401 -0.35772 0.029681 -0.10368 0.13608 -0.3762 0.050096 -0.47742 -0.13028 -0.047848 -0.27966 -0.43947 0.076793 -0.0053973 -0.22256 -0.15482 0.16948 0.42836 0.2038 -0.10166 -0.09941 -0.41811 0.28096 0.19492 -0.50806 -0.36247 0.14219 -0.20959 -0.094557 -0.12727 -0.0063267 0.56689 0.16438 -0.40604 0.43688 -0.44465 -0.083118 -0.055009 -0.26751 0.46989 -0.20055 0.21056 -0.29395 -0.45108 0.71759 -0.067709 -0.20267 -0.060241 -0.43036 -0.37801 0.15568 -0.15479 -0.038548 -0.17449 -0.53456 0.28284 -0.27538 -0.24238 0.23279 -0.038439 0.56433 -0.3957 0.39239 -0.24048 -0.0086656 0.13443 0.44039 -0.14698 0.43568 -0.019945 -0.19894 0.53064 -0.22442 0.62973 0.23889 0.091709 
baterry -0.22254 0.26183 0.016543 0.02248 0.65436 -0.00042113 0.080397 0.3662 -0.32612 0.31232 -0.22763 -0.12813 -0.45753 0.2388 0.02319 -0.16652 -0.22325 0.1581 0.36136 0.059694 0.19713 -0.10787 0.60035 -0.0072722 -0.049455 -0.025563 0.29369 -0.16777 0.26239 -0.11686 0.088575 -0.29046 -0.22455 0.090964 -0.40352 -0.0929 -0.2927 0.58081 -0.22688 -0.21587 -0.15163 0.40682 -0.040053 -0.11514 -0.034258 -0.39393 0.064912 0.22048 -0.2473 0.011875 0.15433 0.25596 0.2293 -0.15393 -0.24272 -0.14836 0.11242 0.44365 0.56012 -0.25321 0.08045 -0.25576 -0.2118 -0.051429 0.41107 -0.26452 -0.0012128 -0.51841 -0.055905 -0.35631 -0.0029253 0.052502 -0.10091 -0.19414 -0.08539 0.092838 0.01949 -0.1692 -0.1911 0.075499 0.025165 -0.21848 -0.14643 -0.51801 0.18133 0.034237 0.11029 -0.20737 -0.35992 0.073257 0.2767 -0.025186 -0.48465 0.15361 0.22664 0.2753 -0.028853 0.42681 -0.040586 -0.0097734 
OMITTED -0.32563 -0.4328 -0.20884 0.25833 0.0012969 -0.27547 0.23099 0.51008 0.14025 0.41562 0.15713 -0.19327 -0.32446 -0.66734 0.30947 0.024339 -0.095417 -0.11361 -0.095497 0.0098449 0.065917 -0.1924 -0.077459 0.15886 0.022012 0.37088 0.062823 0.19185 0.29609 -0.58437 0.022237 -0.58465 -0.3673 -0.18372 -0.23182 0.032195 -0.0064623 -0.088444 -0.4422 -0.31643 -0.050612 -0.020089 0.27859 0.13826 -0.33136 -0.33677 0.33513 0.57002 -0.11958 -0.011259 -0.23696 0.052313 0.11257 0.15485 0.41285 0.2332 0.19869 0.11687 0.42566 0.19458 -0.57309 0.34562 -0.050219 0.11171 0.44373 -0.25057 -0.15616 -0.071052 -0.355 0.0063153 0.267 0.0076133 -0.22617 -0.35867 -0.20965 0.17246 0.099248 -0.024098 -0.25399 -0.16618 -0.030561 -0.44014 0.00066639 -0.026547 -0.061834 -0.14808 0.90071 -0.25352 -0.062718 0.3159 0.24808 -0.33338 0.31689 0.55086 0.40959 0.86121 0.047459 0.91301 0.12462 0.024603 
labtops -0.21377 -0.32401 -0.0059175 -0.078843 0.43896 -0.023969 0.32996 0.16007 0.10134 0.30007 0.26848 -0.11246 0.045808 -0.24385 0.1771 -0.25571 0.22019 0.076909 0.28379 0.050118 -0.20319 -0.0091922 0.17667 0.19116 0.021066 0.067028 0.11282 -0.46669 -0.018685 -0.15253 0.11784 -0.11491 -0.0015384 0.16909 -0.33245 -0.22079 -0.13521 -0.025463 -0.24253 -0.063215 -0.097211 0.038925 -0.12799 -0.28504 0.40801 -0.2819 -0.0016502 -0.20256 0.13247 -0.05661 0.16895 0.21113 0.32914 -0.17499 0.11013 -0.14772 0.027522 -0.082665 0.13531 0.34554 -0.033257 -0.072276 -0.12614 0.2453 0.44693 -0.075846 0.026864 0.014882 -0.13675 -0.28765 -0.27481 0.11516 0.08338 -0.15854 -0.014071 -0.3214 -0.34441 0.15899 -0.20996 0.0053001 0.20504 -0.016927 0.14557 -0.13058 0.1932 -0.017799 0.23462 -0.17808 -0.16465 0.1317 0.34013 0.15865 -0.029437 -0.14601 0.37319 0.63278 -0.082664 0.20183 0.090961 0.095135 
Applications -0.39242 -0.53271 -0.38357 -0.10617 0.033858 0.30171 0.39446 0.3973 -0.27835 0.2916 0.22847 0.0036286 -0.28487 -0.30515 0.05807 0.37531 0.14711 -0.18635 0.67062 0.33156 -0.13663 -0.26238 0.076725 0.080129 0.022569 -0.75805 -0.021647 -0.45835 0.2973 -0.28022 0.32984 0.1713 -0.2929 0.19967 -0.19819 0.49564 -0.2223 0.32807 -0.22039 -0.082995 -0.26373 0.069148 -0.10691 0.091817 0.15082 -0.23343 0.65146 -0.11758 -0.22179 -0.060649 -0.2365 -0.2288 0.21105 0.13835 0.279 0.30573 -0.12387 0.072144 -0.019796 0.12301 -0.044136 -0.16529 -0.33294 -0.067902 -0.13225 -0.17779 -0.057977 0.13907 -0.090315 -0.18742 -0.28821 -0.024599 -0.12285 -0.29454 -0.12982 0.18384 -0.19587 0.0053026 -0.54016 -0.26936 -0.28153 -0.39577 0.11545 -0.0046589 0.40709 -0.011709 0.10578 -0.53433 -0.026882 -0.16383 -0.22326 -0.24448 -0.38844 0.087038 0.51681 0.22961 -0.29537 0.44259 -0.084139 -0.26838 
Toshiba -0.33684 -0.17029 -0.31454 0.47139 0.033865 0.2073 -0.11798 0.41687 -0.1435 0.065922 -0.26872 -0.24247 -0.18729 -0.47728 0.29144 -0.2398 -0.47892 -0.3186 0.073487 0.20492 0.28026 -0.56313 0.36464 0.18254 -0.01267 -0.21186 0.0031104 0.30177 0.26129 0.019484 -0.28425 -0.39376 -0.38257 -0.2243 -0.33584 -0.43181 -0.24435 0.37511 -0.13198 -0.1255 -0.040865 0.065184 0.034473 -0.096116 -0.012331 -0.15415 0.41777 0.2132 0.011434 -0.54298 -0.15499 -0.056544 0.042416 0.28564 0.35419 -0.25752 -0.13342 -0.41373 0.40941 0.19168 -0.27824 -0.39622 -0.0653 -0.30771 0.34271 -0.53915 -0.12895 -0.32219 -0.10983 0.035083 0.21548 -0.52527 -0.24658 0.44049 -0.020969 -0.047741 -0.38547 -0.17201 -0.18071 0.24852 0.035804 0.54811 -0.18845 0.00083273 0.029873 -0.27561 0.12026 -0.28798 0.066065 0.37015 0.043302 0.071115 -0.26104 0.054305 -0.12697 0.77033 0.2042 0.236 0.24803 0.11323 
MD101LL/ -0.12414 -0.020555 -0.065714 0.085151 0.27274 0.032833 -0.14517 -0.030522 -0.09829 0.14535 0.17942 -0.060856 -0.11923 0.024909 0.11631 -0.094427 -0.067655 0.16567 0.17011 0.10961 -0.0073872 0.037418 0.013873 -0.11354 -0.084961 0.030118 -0.081233 -0.063548 0.046366 -0.045021 0.17153 0.15537 0.077562 -0.15996 -0.06362 0.04764 0.015866 -0.026461 -0.031094 -0.15838 -0.037308 0.13609 0.023063 -0.028038 0.011643 -0.027907 0.22606 -0.0019528 0.090031 0.0065461 -0.0075975 0.145 -0.04789 0.0231 0.1587 -0.0020654 -0.092582 0.11034 0.060937 -0.083374 -0.058777 -0.079415 0.043615 -0.039602 -0.10677 0.024774 -0.16598 -0.016428 -0.053562 -0.14722 0.029779 -0.17775 -0.022248 0.080494 -0.082487 0.074769 -0.12529 -0.072955 -0.024575 -0.046515 0.038308 -0.070023 0.032399 -0.036537 0.12263 0.032289 0.33276 -0.2841 0.00095213 0.054855 0.16538 -0.043552 -0.046564 0.10786 0.011776 0.0028673 -0.25118 0.33328 -0.057797 -0.015788 
1080p -0.28571 -0.07302 -0.16866 0.0084201 0.037646 -0.069753 0.23718 0.10582 -0.095265 -0.066004 0.1325 -0.3453 -0.035203 -0.2029 0.1445 -0.0044863 0.052243 0.0098864 0.068677 0.012614 -0.3353 0.09589 0.080995 -0.13564 0.10361 -0.001375 0.045883 -0.025667 0.16889 -0.21642 0.10029 -0.046263 -0.12841 0.034455 -0.0029243 -0.05283 -0.078132 0.11063 -0.30399 -0.035484 0.054632 -0.053103 0.14038 -0.39736 0.15009 -0.25624 0.41654 0.077867 -0.087606 -0.36392 -0.21918 -0.21557 0.050298 -0.08198 0.105 -0.069181 -0.063254 -0.099915 0.085245 0.025599 0.012769 -0.12352 -0.20274 0.26432 -0.037009 -0.28253 -0.23864 0.034208 0.0011978 0.085902 -0.095416 0.12981 -0.30354 0.038571 0.035182 0.12056 0.023702 -0.41121 -0.19813 0.30007 -0.20102 0.08958 -0.032485 -0.054886 0.014329 -0.11754 0.025321 0.24697 -0.16749 0.0099346 0.14775 -0.091344 0.38283 -0.068435 -0.00021673 0.18649 -0.069896 0.58167 0.10836 -0.04172 
Touchpad -0.013461 -0.49006 -0.26949 0.4022 0.89111 0.10097 0.71054 -0.092467 0.2034 0.085035 -0.14116 -0.28413 -0.10798 -0.44664 0.18016 -0.46125 0.43171 0.043795 0.13958 -0.15355 0.010024 0.18839 0.083827 -0.061149 0.05614 -0.55337 -0.044246 -0.52482 0.18828 0.093144 0.17351 -0.57788 -0.28013 0.43657 -0.17778 -0.22126 0.06042 0.55071 -0.136 -0.63845 -0.43382 0.27392 -0.041389 -0.0030579 0.34311 -0.45607 0.74415 0.13497 -0.21499 0.077735 -0.085946 0.0064338 0.50061 0.47205 -0.085869 0.0026799 -0.22497 -0.098534 0.40309 -0.213 0.055299 0.18083 0.077741 -0.025404 0.50719 -0.10833 -0.24393 0.050841 -0.27024 -0.12807 0.026447 -0.036209 -0.17338 0.29746 -0.058946 0.17206 -0.16435 0.10895 -0.14533 0.12194 -0.44651 -0.36843 -0.012858 -0.39683 0.18014 0.094152 0.14997 -0.61467 -0.26724 -0.57305 -0.31397 -0.2276 0.22305 0.40505 0.25669 0.43178 -0.069902 0.1139 0.013667 0.38911 
RAM -0.028116 -0.48974 -1.0475 0.035845 -0.52127 -0.45978 0.89998 0.78235 0.075406 0.88526 -0.87776 -0.4467 0.033466 -0.77683 0.38818 0.66543 0.12266 -0.75439 0.18243 0.11711 0.055324 0.66983 0.15997 -0.069849 -0.17376 0.46088 -0.19922 0.15258 0.073986 -0.67051 -0.53142 0.19506 -0.27007 -0.96497 -1.3436 -1.1855 -0.14202 -0.48313 -0.15964 0.09229 0.028619 -0.54864 0.79415 0.2312 -0.28132 -0.56589 0.80514 0.39516 -0.39815 -0.054257 -0.12048 0.038903 0.19422 0.65898 1.1273 0.53954 -0.061066 -0.89379 0.54598 0.12175 -0.52157 0.32357 0.34856 -0.15884 0.3692 0.31222 -0.11692 -0.25228 0.060037 -0.37514 -0.10336 -1.1668 0.0085258 -0.24779 -0.094892 0.073883 0.020537 -0.6431 0.073934 -0.31693 -0.035223 -0.40503 0.23838 -1.3401 0.2909 -0.36797 1.0174 -0.87148 0.003504 0.77794 0.098363 -0.017136 0.33336 0.57774 0.024369 1.5933 -0.40487 0.9621 0.65879 -0.8971 
macconnection -0.57353 -0.56483 -0.32873 0.10349 0.39936 0.2336 0.23201 0.29886 0.036023 0.34606 0.032481 -0.20512 -0.38214 -0.15625 0.25295 0.22605 0.16117 -0.18497 0.32387 -0.1849 0.2783 -0.18569 0.32473 0.13515 -0.48938 -0.41841 -0.15847 -0.05858 0.043517 0.092259 0.26209 -0.26955 -0.22241 0.34902 -0.20213 -0.19916 -0.30965 0.26446 -0.24124 -0.10156 -0.00030001 -0.094152 0.21631 -0.11469 0.16701 -0.49728 0.21549 0.17991 -0.18857 -0.48827 -0.05265 0.07759 0.28816 0.13201 0.17653 0.29764 0.069884 0.19067 -0.011911 -0.16443 -0.11513 -0.18681 -0.28943 -0.20361 0.37437 -0.31002 -0.04406 -0.10889 -0.13763 0.030899 -0.21559 0.037272 0.086488 -0.19482 0.22694 0.012421 -0.21529 -0.16659 -0.095634 -0.066453 0.19701 0.18994 -0.3957 -0.074319 0.4462 0.20983 0.10476 -0.34212 0.008033 0.20847 0.047149 -0.18789 -0.32201 0.30279 0.11838 0.11894 -0.28647 0.05982 -0.29986 -0.18279 
imail 0.022873 -0.38767 -0.31362 -0.036835 0.36425 0.4634 0.62722 0.10731 0.0011643 -0.18008 -0.23903 -0.17234 -0.70413 -0.4204 0.43514 0.066002 -0.2802 0.39062 -0.034734 0.09168 0.44494 0.014495 -0.46173 0.059598 0.12321 0.023013 0.20901 -0.01019 0.13617 -0.34544 0.28229 -0.2316 -0.63376 0.10023 0.29061 0.025621 -0.33095 0.45995 -0.26277 -0.28435 -0.066569 0.23689 -0.0021471 -0.25593 0.07191 -0.59034 0.9558 -0.019418 -0.32972 -0.038581 0.12544 -0.28158 0.20933 0.18783 0.15369 0.34577 0.11123 0.15773 0.15282 -0.082237 0.21019 -0.11625 -0.21883 -0.091331 -0.091664 -0.5158 -0.13126 -0.030683 0.43101 -0.30834 -0.18143 -0.27379 -0.14094 -0.26499 -0.037316 0.1263 0.046568 -0.13106 -0.57986 -0.15076 -0.31356 -0.1123 -0.19614 -0.050975 0.22381 0.28643 0.18292 -0.15925 0.036396 0.51944 0.11951 -0.094688 -0.20333 0.48089 0.11315 0.17237 0.22838 0.33342 0.13036 -0.1637 
2,400 -1.1178 -0.55396 0.16411 0.47248 -0.17869 -0.18219 0.21436 0.43051 0.031791 -0.17539 0.36476 -0.19064 0.29088 -0.045949 0.045027 0.311 -0.024976 0.52624 -0.016844 0.16607 -0.23911 0.40231 -0.10444 0.26966 -0.28926 -0.21073 0.075412 -0.15641 0.3843 -0.13978 1.0171 -0.064573 -0.12233 -0.1359 -0.29696 -0.52135 -0.02965 0.42085 0.064024 -0.053426 -0.21583 -0.070363 -0.04403 -0.82545 0.17333 -0.46435 0.27602 -0.15393 -0.43401 -0.092921 -0.40158 0.030947 -0.47517 0.11931 0.035491 0.2886 0.28648 -0.41065 0.21654 -0.036852 -0.64731 -0.17026 -0.10412 0.12462 -0.32503 -0.30349 0.12882 0.40296 0.014106 0.064174 0.16307 -0.092809 -0.39277 0.49309 0.055767 0.10571 0.24657 -0.64313 -0.52745 0.43688 0.2087 0.24427 -0.19479 0.068859 -0.29061 -0.040188 0.58474 -0.62392 0.12985 -0.0085533 0.033648 -0.0080737 0.25197 0.018625 -0.11691 -0.0075807 -0.33988 0.8587 0.15584 0.040751 
netboook 0.17748 -0.13699 0.020861 0.14266 0.2659 0.1533 0.050638 0.40095 -0.11595 0.049364 -0.26989 -0.39831 -0.2048 -0.40533 0.28205 -0.1984 -0.16385 0.11435 0.56484 -0.013063 -0.10307 -0.19644 0.073559 0.24033 -0.019245 -0.16866 -0.082047 -0.041279 0.24692 -0.060189 0.25841 -0.39694 -0.10616 -0.2569 -0.27118 -0.43902 -0.29785 0.16618 -0.041489 0.12713 0.021561 -0.20897 0.15982 -0.23436 -0.039059 -0.42181 0.22109 0.40223 -0.22239 0.040628 -0.16752 0.17579 0.030213 0.14544 0.11831 0.079328 0.087079 -0.13136 -0.11184 0.16653 0.10018 -0.15886 -0.21917 0.12329 -0.032666 -0.0595 -0.015643 -0.14644 0.2522 -0.16298 -0.0083437 -0.073188 -0.095603 0.083067 -0.040586 0.37198 -0.0044242 -0.20893 -0.18867 -0.15055 0.13725 0.15606 -0.015595 -0.35208 0.35918 -0.03826 0.1767 -0.090393 0.015802 0.044289 -0.13052 -0.072257 0.095161 0.092252 0.060981 -0.054743 -0.15018 -0.12237 -0.086313 -0.11763 
Newegg -0.42002 -0.36422 0.036395 0.60734 0.38161 -0.060083 0.58089 0.30766 -0.090701 -0.26158 0.28741 -0.56581 0.091142 -0.89447 0.26846 0.28145 -0.30289 0.20277 0.16373 0.32707 -0.036957 0.21037 -0.3766 0.17489 0.14024 0.13041 -0.10968 -0.17794 0.57059 -0.36077 1.1693 -0.048489 0.37037 -0.068664 -0.42224 -0.074231 0.2576 0.31915 -0.13563 -0.062565 -0.11461 0.082193 0.21594 0.031712 -0.36884 -0.51768 0.40163 -0.087236 -0.2563 -0.20784 0.081694 0.013056 -0.2681 0.022162 0.46883 0.1689 0.19569 -0.26892 -0.098539 -0.13443 -0.47913 0.15594 0.094318 -0.5529 0.40458 -0.4212 0.17309 0.35198 -0.12081 0.20295 0.06924 -0.36165 -0.21888 -0.0012436 0.03552 0.28037 0.24455 -0.30051 -0.12278 0.39457 -0.029662 0.76013 -0.25067 -0.4269 0.00062541 -0.20807 0.36897 -0.55898 0.27979 -0.33104 -0.019451 0.0042923 -0.030859 0.23005 -0.15652 0.59238 -0.28692 0.80971 -0.2644 -0.17247 
i3 0.0023631 -0.0036913 -0.0057475 0.00051401 -0.0024305 -0.0012891 -0.0065381 0.00063851 0.00056378 -0.0045888 0.0027605 -0.0041822 -0.0069502 0.0042823 0.0066778 -0.0020837 -0.0033099 -0.00054914 -0.00031987 0.0038751 -0.00029661 -0.002312 0.0024616 0.0028125 0.002332 -0.0058474 -0.0010053 0.00032209 0.00011182 -0.00036525 0.0038283 0.0018932 -0.00098756 -0.001919 -0.0033889 0.0068799 0.0072367 0.0038028 -0.00012793 0.0019297 -0.00050715 -0.0050865 -0.0036525 -0.0048855 -0.0003468 -0.00027071 -0.00088749 0.0040433 0.00030915 -0.003196 -0.0022929 -0.0052975 -0.0018986 -0.0011121 -0.0057793 -0.0056468 -0.0034933 -0.0055557 0.0043215 -0.0013029 0.0017059 -0.0022921 -0.0014468 -0.0070527 -0.0037149 0.002495 -0.003859 0.0002349 0.00033977 -0.0038971 0.0066608 0.0041878 0.0031425 0.0023715 -0.0009074 0.0012492 -0.001124 -0.0021465 -0.0017425 0.0010282 0.0011449 0.0026633 0.0015534 0.00081386 -0.0014326 0.0025553 -0.0016833 0.0077935 -0.0040573 -0.0020687 -3.158e-07 -0.0021249 0.0032061 -0.0012252 -0.0038825 0.0025932 -0.0036637 0.0022117 -0.0022161 0.00050651 
manuf 0.39172 -0.10059 -0.047728 0.30147 -0.14461 0.01051 0.42929 0.35862 0.19918 0.47114 -0.12365 -0.15745 -0.63716 -0.17318 0.18996 -0.17338 -0.56674 0.348 0.18599 0.38606 0.56045 -1.003 0.24548 -0.33456 -0.2355 -0.043891 0.2122 -0.64968 0.10885 0.17535 -0.33696 -0.57468 0.037768 0.59005 -0.1712 -0.41642 -0.5965 0.18008 -0.12366 -0.24145 -0.15069 0.40641 -0.23278 -0.04104 0.27496 -0.76661 0.4893 0.06091 -0.48275 0.22671 0.45328 -0.35267 0.53093 -0.79211 0.43791 0.64721 -0.45624 0.014332 0.50998 0.079887 0.31089 0.3458 0.026467 0.10972 0.81734 0.36623 0.0968 -0.2376 0.29717 -0.12297 -0.27954 0.5515 -0.21543 -0.24263 0.056946 -0.50533 -0.039813 0.10595 0.14493 -0.14576 -0.14382 -0.35023 0.011506 -0.81488 0.15905 0.075918 -0.23345 0.13277 0.011983 0.32198 -0.02125 -0.057347 -0.16357 0.012544 0.24102 0.59147 -0.035889 0.010852 0.43061 0.26694 
2.The 0.0081296 0.032595 -0.019667 0.0551 0.024262 -0.15099 0.33534 0.34429 0.16224 -0.18417 0.038983 0.0215 -0.12894 -0.25964 0.079846 0.054874 0.49388 0.18973 -0.1212 -0.07109 -0.27307 0.12551 -0.30741 0.14038 -0.1276 -0.097218 0.26984 -0.26473 0.3104 0.015205 0.16959 -0.1157 0.13673 0.04074 0.04733 -0.25114 -0.026554 0.15768 -0.12393 -0.11122 -0.12656 0.11004 0.24731 -0.2542 0.13151 -0.36425 0.1802 -0.0052581 -0.20635 -0.15276 -0.013925 -0.033067 -0.1732 0.02759 0.10372 -0.06079 0.008421 -0.17027 -0.2221 -0.060714 -0.088015 0.10406 0.12945 0.11466 0.11752 -0.29891 -0.11491 0.19433 0.088005 0.057969 -0.14877 -0.16531 0.0011978 -0.10408 0.0099066 -0.10595 0.10924 -0.0065086 0.26604 0.42291 0.077088 0.11218 0.13719 0.099827 0.28053 -0.17593 -0.32648 -0.13188 0.050495 0.022723 0.13783 0.035868 0.29255 0.20971 -0.015083 0.21356 -0.35654 0.014282 -0.035246 0.069736 
Sonystyle.com -0.35554 -0.18194 -0.21304 0.12936 -0.14178 0.073871 0.66466 0.048219 -0.13118 0.53889 -0.062616 -0.50204 -0.33308 -0.17023 0.022194 0.16102 0.067323 0.00061366 0.22044 -0.30619 -0.33688 -0.32101 0.020324 -0.32644 -0.085614 -0.16324 -0.13171 -0.2325 0.01693 0.012029 0.37208 -0.029397 -0.39477 -0.20878 -0.24645 0.40443 -0.067039 0.36648 -0.078959 -0.32169 -0.34241 0.40479 0.0038136 0.012377 0.037103 -0.3255 0.39217 0.1517 -0.21495 -0.35497 -0.23486 -0.11936 0.10921 0.06055 0.15811 0.098477 0.028629 0.00251 0.25777 0.20755 0.091465 -0.12118 -0.030479 -0.077818 -0.21519 -0.16103 0.037784 -0.268 0.32777 0.025145 -0.013965 -0.23697 -0.41878 -0.22472 -0.020243 -0.035813 -0.37636 -0.36166 -0.10359 -0.034717 -0.3132 -0.2125 -0.33546 -0.17908 0.60847 -0.088898 0.093884 0.1193 -0.3804 0.097113 0.11177 0.04616 -0.12574 -0.1184 -0.080505 0.62462 -0.11713 0.33453 -0.162 -0.066417 
Firewall -0.14453 -0.075311 -0.084236 0.25781 0.42429 0.073881 0.34334 0.12581 0.25112 0.54578 0.45822 0.46099 0.12701 -0.22847 -0.032163 0.062104 0.14222 -0.32518 0.20267 -0.071203 -0.47515 -0.035493 0.48161 -0.19642 0.16439 -0.42953 0.00053083 -0.082649 0.14242 0.097331 0.23741 0.018622 -0.061344 -0.50188 -0.16946 -0.25644 -0.081666 0.39615 -0.089095 -0.32721 0.55468 0.078111 -0.25962 0.040737 -0.084324 -0.48714 0.26722 0.29684 -0.41689 -0.24713 -0.14173 0.019202 0.31336 -0.027302 0.11716 0.30603 -0.27217 0.36134 0.22233 -0.26576 0.21166 -0.10598 0.13375 0.053895 0.029741 -0.11712 0.38723 -0.024457 0.24929 -0.1403 -0.074311 -0.065612 -0.22455 -0.22186 0.22579 0.76211 -0.39944 -0.29425 -0.29225 -0.23672 -0.10099 0.0062065 -0.046373 -0.31841 0.93917 -0.43203 0.49572 -0.42263 -0.18466 -0.44754 0.3252 0.2068 0.059215 -0.25571 -0.086754 0.89059 -0.077499 0.10572 -0.073712 -0.19488 
VMWare -0.26214 -0.44777 -0.0023258 0.44303 0.12455 -0.017487 0.41878 0.19308 -0.15056 -0.062072 0.053903 -0.11096 -0.010056 -0.047654 0.25733 0.08646 0.23375 -0.10061 -0.0094802 0.24816 -0.19328 0.21963 -0.062494 0.14007 -0.17538 0.12661 0.30954 -0.27109 0.52222 -0.26442 0.25416 -0.15071 0.064663 -0.35201 -0.15829 -0.16233 0.062368 0.35005 0.034893 -0.16889 -0.21856 0.24092 -0.16247 -0.14743 -0.014734 -0.22874 0.11492 0.1081 -0.26502 -0.14468 -0.21331 0.20484 -0.13172 -0.019249 0.15269 0.23654 0.19782 0.12883 0.044027 -0.029315 -0.56706 -0.045118 0.00096782 -0.38626 -0.3256 -0.20504 0.21041 0.36926 0.14318 0.028013 0.28441 -0.054232 0.17147 0.182 -0.10073 0.25386 -0.044787 -0.35218 -0.22183 0.28567 0.061565 0.26241 -0.12812 -0.25106 -0.18674 -0.088083 0.35016 -0.31804 -0.0034607 -0.01653 -0.19034 0.065328 0.006174 0.16273 0.2185 0.29285 -0.2995 0.48058 -0.068181 0.10162 
marketshare -0.47447 -0.5021 0.0202 0.49843 -0.049579 0.095208 0.36252 0.29842 0.33204 0.13054 -0.13229 -0.15572 -0.48901 -0.13334 0.28389 -0.020003 0.00033371 0.008331 0.31421 0.005744 -0.16682 -0.079332 0.1791 -0.18635 -0.091586 -0.16705 0.039254 -0.25886 0.17201 0.28873 0.41307 -0.39859 -0.36612 0.066554 -0.093926 0.0081704 -0.30147 0.015118 -0.17871 -0.14747 -0.34125 0.15365 0.1266 -0.11865 0.27859 -0.36946 0.083279 -0.16021 -0.19216 -0.20232 -0.19 0.077471 0.44969 -0.12964 0.47457 0.32852 -0.13856 0.16811 0.36755 -0.017487 0.026899 0.043402 -0.22085 -0.044183 -0.16575 0.090424 -0.0081141 -0.03187 0.27863 -0.16424 -0.31817 0.045022 0.11252 0.010482 0.0059971 -0.23939 -0.18227 0.0025146 0.29221 0.055117 -0.46407 0.3948 0.044397 -0.43812 0.33765 0.33762 0.62692 -0.26404 0.063543 0.059137 0.0069822 -0.061075 -0.23971 -0.15378 0.12547 0.068182 -0.25246 -0.056517 0.13628 0.01218 
turing -0.15255 -0.059829 -0.33965 0.041596 0.25303 -0.1638 -0.015641 0.1077 -0.1074 0.21221 0.31236 -0.31052 -0.35919 0.12943 0.43977 -0.028486 -0.092297 0.18497 0.29975 0.23899 -0.022149 -0.022723 -0.19393 0.25198 0.0035859 -0.66409 -0.19427 0.21272 0.20054 0.079464 -0.18942 -0.55929 0.099117 0.40109 -0.91816 -0.40737 -0.085533 -0.019517 -0.19543 -0.18818 -0.49898 -0.174 -0.057631 -0.14284 0.22645 -0.77413 0.038215 0.032 -0.15374 -0.19222 0.057722 0.233 -0.20486 0.27743 0.064637 0.30342 -0.41195 0.11875 0.40403 0.015788 0.16876 0.051085 -0.49187 0.11155 0.27809 -0.48341 0.18611 -0.14413 -0.085554 0.27141 -0.51347 0.071302 0.013241 0.018605 -0.13504 -0.17444 0.21212 -0.10012 -0.095948 0.22123 -0.18519 -0.030213 0.11451 -0.58317 0.4591 0.067365 0.61799 -0.033579 0.42681 0.44799 0.38349 0.31583 0.065423 -0.13771 -0.02652 0.14254 0.094687 0.45475 0.014054 0.023211 
upgreade -0.23767 -0.10758 0.16695 0.082531 0.057108 0.2164 0.12425 -0.040014 -0.23885 -0.35082 0.095942 -0.28155 -0.012138 -0.49528 -0.023691 0.18786 -0.021445 0.19672 0.48511 -0.089198 0.001678 0.04479 0.18037 -0.17147 0.30662 -0.37899 0.57711 -0.25689 0.0079825 -0.10086 0.30328 -0.30125 -0.22618 0.25156 -0.21486 0.02915 -0.10617 0.58155 0.25073 -0.22823 -0.21152 0.13093 0.17897 -0.17536 0.094862 -0.21354 0.19942 0.18515 -0.018337 0.12274 -0.20291 0.25289 0.19902 0.3383 0.20828 0.42413 0.1643 -0.12457 0.22843 0.075055 -0.35154 -0.20135 0.15443 0.17989 0.4913 -0.58177 0.029928 0.093899 -0.10387 -0.13141 0.11956 -0.16428 -0.052461 -0.23039 0.074214 0.11212 0.21729 -0.19209 0.045885 0.19981 0.022615 0.03955 0.1314 -0.14273 0.30729 0.02396 -0.15262 -0.43716 0.00059641 -0.30661 0.43545 -0.048155 0.23043 0.12811 -0.162 0.41842 -0.4423 0.11145 0.075641 -0.332 
10/ -0.3396 0.035991 -0.30802 0.081543 -0.0072565 -0.21538 0.55671 0.34671 0.020567 -0.028146 0.055393 -0.32403 0.075474 -0.29819 0.045167 0.10802 -0.048423 0.21686 -0.15896 0.15548 -0.25307 0.17589 0.001447 -0.0084966 -0.037005 0.064333 -0.089968 -0.0016745 0.27619 -0.32517 0.17024 -0.14261 -0.24292 -0.06096 -0.035321 -0.20246 0.022165 0.18087 -0.11789 -0.089702 -0.10851 -0.087992 0.033084 -0.32757 0.081103 -0.29366 0.53434 0.13639 -0.21006 -0.21614 -0.3259 -0.16857 -0.20327 -0.15305 0.16107 0.09683 0.096474 -0.097664 0.16348 -0.034652 0.082573 -0.053499 -0.18197 0.040534 -0.18821 -0.20722 -0.20035 -0.071189 0.05026 0.074686 -0.078581 0.047517 -0.46858 0.092363 0.11266 -0.014377 0.14756 -0.26558 -0.21921 0.20749 -0.11393 0.087155 -0.24193 -0.035472 -0.1617 -0.15002 0.067256 -0.09739 -0.025702 0.084929 0.0085878 0.089461 0.39734 0.2456 0.049524 0.20182 -0.18466 0.53465 0.13761 0.11682 
typer 0.10126 -0.276 0.019501 0.15654 0.2321 -0.10515 0.1729 -0.044279 -0.24034 0.39109 0.17004 0.34871 -0.39224 -0.42449 0.34894 -0.10488 0.20332 0.80242 0.076917 -0.21829 -0.42347 -0.1168 0.059961 0.33152 0.28802 -0.42449 0.32295 -0.66956 0.36719 -0.17169 0.10532 -0.49114 0.32109 0.087795 -0.75315 0.29755 -0.1239 0.61894 -0.46112 -0.10837 -0.30163 -0.069469 -0.03823 -0.26935 0.78086 -0.16488 0.12079 -0.42348 -0.23362 -0.095162 -0.21821 0.19062 -0.21967 -0.21408 0.043042 -0.070469 -0.0058213 -0.23381 0.091219 -0.1099 -0.22946 -0.20888 0.44411 -0.053301 0.16005 -0.16253 0.011539 -0.14654 -0.28429 -0.030085 -0.29816 -0.032169 0.46325 0.15476 -0.3433 -0.15259 0.12778 -0.23668 -0.36647 -0.022717 -0.33464 0.054841 0.15037 0.2572 0.45082 0.30626 0.080026 -0.7961 0.13157 0.36325 0.14324 0.11327 0.30462 0.053058 0.038448 0.20833 -0.22763 0.65147 -0.032209 0.21846 
abilitiy -0.62395 0.073231 -0.035072 0.00060048 0.054831 0.39488 0.43172 0.48917 -0.14598 -0.0041613 -0.095288 -0.038233 -0.18751 -0.32968 0.011556 -0.21312 -0.1577 -0.61425 0.041098 0.79556 0.35595 -0.2891 0.47569 0.58526 -0.3927 -0.15735 -0.20247 0.022189 0.4429 -0.012738 0.63418 -0.13966 0.0099094 0.31074 -0.35414 -0.023854 -0.16924 0.42711 -0.40636 0.00090725 -0.39566 0.23621 -0.045208 0.13204 0.33226 -0.24809 -0.0081723 0.19724 0.0091008 -0.1692 -0.49306 -0.05396 0.20955 0.22596 0.49423 0.021213 -0.39737 0.080853 0.24069 0.28169 -0.41813 -0.13365 -0.065148 0.10966 -0.011777 -0.17289 0.23303 0.12401 0.29782 0.23828 -0.096918 -0.21088 -0.12884 0.13552 -0.42705 0.15857 -0.010761 -0.24093 0.045834 -0.231 0.11041 0.33814 0.33463 -0.30066 0.095912 -0.013197 0.13156 -0.21594 -0.037112 0.43823 0.090636 0.1158 -0.23707 0.46422 -0.15485 -0.39885 -0.59672 0.14559 -0.67169 -0.055885 
Warrenty -0.42867 0.071245 0.31926 -0.043563 0.073543 -0.31825 -0.014936 0.12948 0.12948 0.34644 0.046924 -0.20969 -0.35761 -0.62392 0.36199 0.175 0.13464 0.10152 0.19396 0.32555 -0.046808 0.28206 0.061994 0.096139 -0.23298 -0.067052 -0.27148 -0.4956 0.08322 0.38334 0.15501 -0.36183 -0.59962 -0.10815 -0.14333 -0.11232 -0.33931 0.29741 -0.47973 0.059786 0.35205 0.10479 0.19915 0.37816 -0.091522 -0.18122 0.74202 0.43423 -0.25615 -0.35472 -0.017632 -0.26185 -0.081896 -0.067441 0.31132 0.2538 -0.16655 0.17983 0.27685 -0.22293 0.35605 0.05186 0.0030031 0.043266 -0.021935 -0.34632 -0.13447 -0.44135 0.18608 0.16783 0.1888 -0.12257 -0.30468 -0.14426 0.35241 0.008937 -0.27125 -0.15174 0.19354 -0.0015917 -0.037906 0.048341 -0.13604 -0.0039984 0.42803 -0.39147 0.44259 0.023089 -0.31673 -0.5397 0.15248 0.032808 -0.060732 -0.16873 -0.080912 0.25802 0.10801 0.75359 -0.24494 -0.49101 
